3030 64
847 0.5638778 0.77332205 -0.03661432 0.7573575 -0.97615457 -0.29601443 0.6523544 1.1034337 -0.023250703 -0.17309019 0.19831961 -0.42223266 -0.18636861 0.9158727 -0.36922225 -0.536038 -0.10572144 -0.15814468 0.80550504 0.14917128 -0.4623019 -0.38126472 0.3942226 0.12727168 -0.08781909 0.54332703 -0.6064618 0.059227962 0.4591061 0.602017 -0.5834635 0.046309482 0.9156286 -0.5331845 0.3644683 -0.8511457 0.9937101 0.5791179 -0.21818091 -0.00019322043 -0.44437602 0.54503304 0.26576635 0.24893232 -0.14305827 0.0738382 -0.63172114 0.34183848 0.116873436 -0.46741632 -0.54270846 -0.09462355 -0.6199609 -0.31716427 0.29095894 0.3036564 -0.4504124 -0.8314348 -0.13243915 0.13193265 0.023255568 -0.058226213 0.59064555 0.4563929
905 0.7378496 -0.15268241 -0.072530404 1.5854821 -0.338104 -0.4883104 -0.4576811 0.5250789 0.2637267 0.3310761 0.06648882 1.1147741 -0.5752963 -0.15291013 0.2931662 -0.6349106 -0.1927664 -0.64879614 -0.52546453 0.6331413 -0.15336949 -0.1072248 0.29997182 0.108440354 0.08694598 0.48459995 -0.39792728 -0.09473253 0.010465824 1.3087894 0.22462192 0.033443604 0.15241626 -0.2163338 -0.517299 -0.77386767 0.78106266 0.36168683 0.32161626 -1.4167117 -0.34479642 0.61475277 0.8680736 0.67610735 -0.32940364 -0.049524337 -0.42722118 -0.25795475 -0.75793505 0.5971876 0.35412517 -0.9685947 -0.5961235 0.45775756 0.3101149 0.30922493 -0.028193288 -0.07911365 -0.6734998 0.36415946 -0.011140996 0.5174466 0.07148708 0.11940496
471 0.4587132 0.9734721 0.47981992 0.7041195 -0.40284777 0.29877996 0.76483536 0.9300179 -0.8669249 -0.373736 -0.773549 -0.15676112 0.6135518 0.017134357 -0.20210691 -0.2726215 0.5628062 -0.67304623 -0.5078587 0.62531793 -0.29111305 -0.516764 -0.36697415 -0.33602294 -0.2935535 0.34865543 0.52747685 0.1408487 0.09323827 0.6464606 0.06953326 0.14209472 0.72293705 0.10040533 0.5486001 0.098005965 -0.67518073 0.32221645 0.7049414 -0.18498452 -0.033225708 -0.10241335 0.50479007 -0.026812227 0.3201299 -0.011504832 -0.6087987 -0.21107578 -1.4542882 -0.082642466 0.067203574 -0.6173289 -1.0757368 0.78296155 0.09480472 0.26871446 -0.49751946 -0.8993846 0.57254624 -0.48810706 -0.2466947 0.2325818 1.0106186 -0.46795252
390 0.58275974 0.62186635 0.6347319 -0.26282832 0.7393191 0.6634253 -1.0156345 0.93898463 0.48828387 -0.17669274 -0.39833355 -0.06910623 1.1482177 0.17502806 -0.27314672 -0.05739307 -0.2949748 -0.7915092 -0.056215342 -0.16442424 0.36139295 0.038185086 -0.08927975 0.5774791 0.49066183 0.57631403 -0.12644476 -0.03701267 0.41456193 0.67117697 -0.09300261 -0.29016846 0.46447873 0.2879264 -0.041662168 -0.48797438 0.61324054 -0.4695348 0.49752855 -0.33710125 -0.40596297 0.5577811 -0.08653469 -0.6616488 -0.29706603 -0.06851682 -0.05009736 0.6424438 -0.64015627 -0.7965335 -0.633394 -0.39042696 -0.32102102 0.5563949 0.39960042 0.4155096 0.08415788 -0.92981476 -0.037725486 0.20104834 0.72526187 -0.72926474 1.3661219 0.21570651
986 -0.57704353 0.8677755 -0.2897685 -0.065919705 0.60640967 -0.020029562 0.39735815 0.6905715 -0.41523167 -0.5251177 -0.30146357 -0.45485798 -0.6665573 0.021042412 1.0912762 -0.47014847 0.018302975 0.13566245 -0.13331902 0.020420475 -0.2736389 0.08615476 -0.21421807 -0.35391736 0.29296938 1.1874552 -0.20160401 -0.31913134 -0.39315388 0.3539926 -0.4852318 0.48089376 1.3081248 -0.26995292 0.035205755 -1.2436932 0.49106383 0.22518212 -0.3069108 -0.006569185 -0.3802827 -0.08424982 0.92513037 -0.08926346 -0.0004407368 -0.5252968 -0.39731148 0.42959467 -0.0917253 0.76306295 -0.7799283 -0.39808437 -0.91388166 1.1174935 0.20141485 0.23154487 1.1624241 0.09057726 0.24330777 0.45173943 -0.13032699 -0.5064883 0.9139275 0.42941114
1918 0.4167584 0.77524114 0.33990416 -0.1621787 -0.20400397 -1.1278385 -0.13558388 0.4404894 -0.064887874 -0.2739178 0.688014 -0.41922668 -0.28588748 0.0029034598 0.10485652 -0.57451403 0.043868974 -0.7065444 0.116917096 -0.2812654 -0.7720277 -0.09172665 -0.45071146 0.87312466 -0.7769608 1.3759141 -0.20370759 0.5744774 0.45187718 0.43939936 0.015875712 0.7597739 0.16805287 0.42089683 0.20738454 -1.0558424 0.24008814 -0.30355 0.4244493 0.095665984 -0.54606855 0.5073292 0.48092714 0.985993 -0.2490647 -0.2935014 -0.80021983 0.5129729 -1.5102028 0.4562467 -0.614802 0.6208029 -1.0941372 0.091396436 -0.10044765 -0.30092075 1.1714276 -0.27774018 0.71213746 0.25260004 -0.1575152 1.1938479 0.3421673 -0.17694148
822 0.7845466 -0.296487 -0.23216178 1.1337008 -0.87950224 -0.93544984 -0.23386884 0.72818565 0.21896897 -0.28819278 -0.33264962 0.055211082 -1.3566229 0.11164767 0.5526736 -0.6641712 -0.8895973 -0.55103076 0.6303652 0.8638277 -0.5940002 0.04082938 0.2950809 0.20518498 1.3741294 -0.6116154 -0.08460731 0.8887302 -0.20122568 0.5612299 -0.14822116 -0.1534456 0.60100174 0.6587098 0.60671794 -0.80224115 0.20674191 -0.067249775 0.48269114 -0.29188907 -0.16633804 -0.17316478 0.5978941 -0.3490004 -0.1807885 0.14151627 -0.5186836 0.13715824 -1.4111799 -0.5566989 0.69816554 1.0254387 -0.16281015 0.0332205 -0.46139166 0.29270375 0.47206673 -0.7067312 0.47478074 -0.94067836 0.008725441 -0.0025859517 0.47032544 0.0278811
1004 0.5763542 0.20429617 0.7936431 0.796488 0.7518133 1.5688416 -0.71170783 0.7970524 -0.8612861 0.0504901 0.22180253 0.3769189 -1.2752368 0.595509 -0.11273713 0.083863355 -0.57596076 -0.45609096 0.7286257 0.45551184 -0.40975493 0.6154262 -0.47745097 -0.81591964 -0.20829101 -0.020944707 -0.1304096 -0.035234507 0.30369627 0.93344575 -0.8133785 -0.23595193 -0.29428464 0.42139968 0.4690808 -1.4337616 0.76308525 -0.5971279 -0.4631144 -0.16086636 -0.7159227 0.37177554 0.0726881 -0.056634657 0.3945242 -0.43823865 -0.05171033 0.57954264 -1.2088389 0.0006500503 -0.79491717 0.3490213 -0.18766187 -0.40872797 -0.3696077 0.21583647 0.5607004 -0.7245628 0.3332225 -0.48778826 -0.3694899 0.7253332 0.56747866 0.2734194
699 0.82547754 0.49450192 0.672816 0.2086047 -0.15926965 0.3928189 -1.3455426 1.035986 0.2146192 -0.91622096 0.29067594 0.3535125 -0.9815072 0.34352568 -0.24158126 -0.9973528 -0.88420254 -0.18482815 -0.18922928 0.8219949 -0.93028617 -0.015402534 0.11724111 -0.15050057 0.04824324 0.95539784 0.21453896 -1.1327114 -0.009020445 0.10902943 -0.07158514 -0.06656575 -0.50319654 0.6348086 -0.08889777 -0.42718393 -0.32691035 0.70140755 -0.39167988 0.23347993 0.36935478 0.62614965 0.7642328 -0.48251554 -0.042471703 0.8925924 -0.8110207 0.43461785 -1.8204468 -0.2351954 -0.08662387 0.15822572 -0.5566167 0.37791988 -0.69374216 -0.08532428 0.19929257 -0.21363178 0.47879493 0.14352031 -0.092054926 -0.089850135 0.70518297 -0.20375426
1406 0.5861257 0.53890955 0.66598463 0.08724259 0.27308717 0.60122365 0.52991134 0.95647734 -0.0858938 -0.16649225 -0.62514544 -0.36048257 -0.2795814 0.022703584 0.086137235 0.38416132 -0.31516677 -0.76770914 0.5580852 0.26599222 -0.72877306 -0.48857787 0.551326 0.6052279 -0.56205356 0.8653338 0.90760016 0.36552617 -0.9489579 0.16337879 -0.48169136 0.21348351 0.022452474 0.90325314 -0.13322635 0.19021565 -0.2253736 -0.67163986 -1.1692106 -0.6089232 0.13970746 0.20650047 0.0581251 0.7654908 -0.015381823 -0.39096907 -1.1787775 0.924044 -1.168969 -0.14222293 -0.8828216 -0.3685551 -0.8393625 0.2429505 0.2375825 0.37335432 0.18496849 0.52965826 0.4067244 -0.34427485 0.6171341 -0.6147558 0.043914817 0.5060065
916 0.2884663 -0.2581238 -0.06530632 0.040573075 0.7884481 0.062698685 0.34179005 0.38493702 0.13253564 -0.4023459 -0.57290757 0.6180396 -0.3912646 -0.6727148 0.3780992 -0.72323084 -0.605441 -0.34890327 0.5724722 -0.5988615 0.1900934 -0.53896844 0.59879214 0.64220774 0.63504595 0.67123723 -0.020975333 0.9623106 0.03906052 -0.057809442 0.22338258 -0.6191036 1.1032306 0.09067747 0.7843096 -1.0356131 -0.03295335 -1.2876847 -0.7701546 0.23152295 -0.85311407 1.4205657 0.5207761 0.36669296 0.05279291 -0.1466344 -1.2279209 -0.4748167 -0.8568006 -0.39175853 -0.7267093 -0.8306151 -0.35425547 0.501859 0.24093421 1.4849993 0.40797797 0.28385416 -0.6255315 0.05114197 0.41120613 -0.06920624 -0.14272368 -0.1488295
661 -0.26714218 0.035939567 -0.8101444 0.22758645 0.7698055 0.44189098 0.29334447 0.28288564 0.25002742 -0.9377793 -0.26175895 0.6616436 0.023795372 -0.5839693 0.30589864 -0.7956931 -0.87434113 -0.4962214 0.8684398 -0.3388206 -0.24780867 -0.36806473 0.29264003 1.379857 -0.03483873 0.7056517 -0.13020907 0.41750103 -0.037486266 0.07227928 0.24339655 -0.5479714 1.1818011 -0.041167334 0.45660663 -0.58532095 0.508496 -0.95987254 0.1304537 0.5073156 -0.9369736 0.8576271 0.60943884 -0.18792215 -0.41834018 -0.0032972903 -1.3470807 -0.37161183 -1.0647855 -0.08316353 -0.37576613 -0.5316402 -0.73308253 0.2548692 0.31516367 1.2587668 0.052229438 0.24647321 0.049746517 -0.25021845 0.23687859 0.09698304 -0.28948045 0.37315753
698 0.3380055 0.96789706 0.9483467 0.041191556 0.85690606 -0.16250841 -1.3275449 0.84123236 0.16116033 -0.1926098 -0.022622487 0.1500969 0.9511285 0.25670543 -0.18196511 -0.20020443 -0.2502132 -0.84492135 -0.21260495 -0.13044825 0.18874575 0.10693348 -0.35192326 0.74809057 0.34519175 0.30073887 -0.06765128 -0.2333439 0.38618147 0.51907575 0.04471058 -0.62201124 0.4705007 -0.76786965 -0.22782074 -0.4772753 0.031824913 -0.7176312 -0.0952585 -0.16376428 -0.27550894 0.79129905 -0.8559061 -0.6638954 -0.15327923 0.13542894 -0.11291824 0.388869 -1.0207369 -0.8845821 -0.63596946 -1.0189008 -0.04234778 0.37145913 0.84445435 0.3629639 0.67734957 -0.6404724 0.1325084 -0.60469455 0.34518808 -0.50183326 1.5658646 0.43822357
2050 0.8528676 0.064618886 0.5331538 0.86661017 0.030664375 -0.590292 -0.090024464 0.78861433 -0.51908046 -0.4700173 0.16883849 0.2401138 -0.3051043 -0.15987249 -0.38737804 0.20457749 -0.23586097 0.13245355 -0.25638193 -0.3355632 -0.13996638 0.54444087 -0.75395286 -1.0753022 0.13335569 0.29055375 -0.59489864 0.294224 0.037363283 0.05064736 -1.1464942 0.65962183 0.5156265 -0.31903762 -0.3986215 -1.1375371 0.50001 -0.268291 1.0002226 0.11792683 -0.2749963 0.79403543 -0.02016172 0.41908103 0.102114104 0.5200978 -0.24061386 0.75317 -0.8695291 -0.122609854 0.37656072 -1.0194699 -0.1192365 0.5502923 -0.66628206 0.30006883 1.2274371 -0.72183436 -0.18243338 -0.7893612 0.69275784 -0.53260666 1.0304731 0.1400241
799 0.8453847 0.8692705 0.7416901 0.359271 0.23411046 1.0877602 -0.088283375 0.6404094 0.29525405 -0.7644533 0.040356595 -0.35012117 0.9327587 -0.28384066 -0.26445708 -0.15421617 -0.6874179 -0.8337195 0.08214414 0.15977398 0.5579098 -0.41321075 -0.42389083 1.0945665 0.51718366 -0.15765554 -0.3667766 -0.64335376 0.6983269 1.3237123 -0.47502577 -0.35817143 0.38898128 0.8186202 0.026816541 -0.6763478 0.7518482 0.02811785 0.8515582 -0.23832221 -0.35839278 0.2518645 -0.03595273 -0.3486336 -0.71438044 -0.1022554 -0.0386567 0.36126554 -0.72012234 -0.1134469 0.042162895 -0.042307496 -0.3195501 0.92014974 0.70317125 -0.08131921 -0.124780305 -1.0412716 0.1799684 0.20795056 0.56761223 -0.58782816 0.98654294 0.39326787
780 -0.105886415 0.12390395 -0.09437322 0.7613744 -0.70666003 0.22536613 0.86134857 0.8656029 -1.2716064 0.49011052 -0.4805565 0.09169905 0.72061336 0.006050075 0.021642484 -0.31699064 -0.22402582 -0.40022647 -0.581366 1.0331764 -0.078995004 -0.6306156 0.083645284 -0.27859765 -0.030331016 0.35031706 0.08235482 -0.1015667 -0.37136528 1.2409539 -0.2525234 0.58379215 0.7089908 0.13220613 0.10689458 0.018989433 0.3012086 -0.20319603 0.48514703 -0.32698148 -0.6504983 -0.218662 0.28156772 -0.59829915 -0.53146744 0.0702763 -0.3413609 -0.302264 -0.9557538 -0.27831897 0.3896948 -0.4225969 -1.234098 1.0685227 -0.1823919 0.51906145 0.03893439 -1.2701749 0.72066194 -1.0645678 0.285999 0.15088962 0.8725802 -0.3521294
2049 1.2177942 -0.29876044 1.3652186 0.7320894 -0.16591993 0.34750572 0.12870178 0.33181494 -0.3770225 -0.54607713 0.27664465 -0.12165309 -0.44262856 -0.21730241 -0.48981833 0.25390485 -0.07170283 0.18809713 0.122677855 -0.12544169 -0.58153975 0.685703 -0.5809191 -0.61208606 0.45108882 0.4356958 -0.96733236 0.11866542 -0.090418704 0.18074937 -0.5721222 -0.13461803 0.84703356 -0.38474935 0.32089984 -1.0842675 -0.026709706 -0.54730445 0.6741039 0.6211094 -0.5027205 0.9260496 0.47425464 0.51966614 0.3446923 0.34932113 -0.36011496 0.7630993 -0.58823293 -0.15817596 0.18596369 -0.95133007 0.36127216 0.56444687 -0.34713128 0.1515269 1.6401182 -0.28939655 0.07698261 -0.70889246 0.9071174 -0.22240664 1.3098911 -0.027805809
848 0.9570176 0.19609906 -0.7673058 -0.18252616 0.6456213 -0.1878246 0.23949806 0.36531618 -0.4207627 0.21915022 0.27836537 -0.19261333 0.114741445 0.05320909 0.596007 1.150702 0.15570593 -0.9760593 0.79817677 0.1531699 0.14531527 -0.2052534 0.16309394 0.024416689 -0.43999222 1.3499985 -0.5008328 -0.5360331 -0.7216812 1.1803015 -0.44635275 -0.13015461 0.2695377 0.6550211 0.15725261 -0.51358587 0.18623272 0.17109036 0.18333426 0.18224226 -0.7450419 1.5001134 0.7458135 0.089300565 -0.27451226 0.32989916 -1.2005119 -0.7161071 -0.04903184 0.043564633 -0.5536801 0.31729126 -0.55223054 1.267789 0.25065818 -0.101478614 0.044665877 0.21345004 -0.38153931 -0.6431219 -0.0048883758 0.19311355 0.8297816 -0.26194122
643 0.683142 0.2718068 -0.3452537 0.409514 -0.18564504 -0.58966964 0.14836909 1.041097 0.364466 -0.24108548 0.15330462 0.29403058 -0.69629705 0.04926728 -0.03675707 -0.17600365 -0.37837332 -1.2097328 0.62843037 0.81999743 -0.61921203 -0.25768256 -0.46638486 0.14188746 0.17998828 1.0728929 0.21392645 0.1715053 0.8704228 0.5849582 -0.74298465 0.81721634 -0.41818064 0.8448623 -0.14832947 -0.08087614 -0.73040223 -0.6812627 -0.421979 -0.16456372 0.018802997 -0.0024043652 -0.077402174 -0.020028174 0.45635685 -0.38976094 -0.2912855 -0.5622912 -0.44363838 -0.83588684 -0.9169872 -0.35390016 -0.30566764 0.50553393 1.6423292 0.26538482 1.2109528 -1.5087537 -0.52016926 0.25855416 0.28158668 -0.44072616 0.6116607 -0.6712193
855 0.3487733 0.7055651 0.32124567 0.5508595 -0.0690909 -0.73624957 -0.23105827 0.099400595 -0.082708985 -0.9124049 -0.41240567 -0.20374626 0.12348714 1.5154334 0.82798845 -0.46735653 0.059390623 -1.2819698 -0.35255557 0.67396843 0.12587363 -0.81034696 0.6146592 -0.01828906 0.45842206 0.18964262 -0.7944316 0.42842928 -0.6565144 0.7450316 0.2040852 0.26111338 0.82015824 -0.39569584 0.086497016 -0.56016105 0.6459855 -0.516439 0.95522124 0.35991055 -0.8320455 0.876835 -0.06650675 -0.3657163 -1.0629014 -0.12336989 -0.22316717 0.48917034 -0.066474475 0.058516216 0.0503785 0.43195173 -0.9294087 0.89235765 -0.17952153 -0.39704525 0.9157846 0.6636135 0.07078766 0.13963169 -0.22224836 -0.62383175 1.2297596 0.08389176
2955 0.6894165 1.305376 0.23116529 -0.2744665 -0.24816804 -0.26036555 -0.18268391 0.4929742 -1.497348 0.95951474 0.7963103 -0.14537244 -0.31592098 1.0175481 0.25656077 -0.26168245 -0.39361465 -1.4536797 0.28270915 0.552351 -0.092456914 -1.0730096 -0.42372248 -0.48434314 0.20354302 -0.9750408 -0.39882752 0.20909148 -0.5559029 0.9815207 -0.23187399 1.4242293 -0.046536308 -0.19680277 0.052699167 -0.5921681 0.59222686 -0.49830258 0.22924575 -1.1529261 -0.39116547 -0.10161183 0.11080329 -0.777527 -0.3429705 0.8183476 -0.48560193 -0.5700024 -0.7520536 -1.4268453 -0.9027107 -1.3577371 -0.6161757 0.41430473 0.51100034 0.45438707 0.5976667 -0.6269903 -0.26066107 0.011164578 0.3399532 -0.21683368 0.22941522 -0.8599163
1005 -0.44046214 -0.08321172 0.62919873 0.81553125 0.24392107 -0.204089 1.165146 1.4834119 -0.25579795 0.1368359 0.20469947 0.8647706 -0.33665377 0.8811507 1.1025687 -1.0453556 -0.9156358 -1.5307578 0.075630434 0.06408067 -0.1252428 -0.23888767 0.4147424 0.46836638 -0.33493516 0.03552392 -0.3156416 -0.110827595 0.3099108 0.54822725 -0.4289282 0.5071115 0.7284237 0.2202906 0.49647844 -0.47539097 -0.15135622 -0.0033701975 0.14377949 -0.082067914 -0.6954588 1.3053541 0.3312276 -0.4277862 -0.6123155 -1.6581807 0.009668375 0.8605867 -0.123216614 -0.7607455 -0.045631867 -0.66406214 -0.9425679 -0.2764609 0.09225628 -0.20809643 0.40130383 -1.9054618 0.7263106 0.47197366 0.66829485 -1.1683929 0.33043802 -0.45380533
1101 0.30628476 0.28030127 1.4253796 -0.5431985 -0.034989662 -0.7277428 0.53317875 1.0027692 0.56195974 -1.3941677 0.05932577 0.7245925 -0.5263279 0.5199377 0.45938617 0.46213564 -0.30910543 -0.11276154 0.15624292 0.44234177 0.21078214 -0.280362 -0.7922151 -0.020351278 -0.21079303 0.70158005 -0.10807121 -0.312655 -0.7753631 -0.5886709 -0.3064192 -0.2392478 -0.50431013 -0.9845979 0.26500574 -1.2974074 0.04298374 -0.29597765 0.19988555 -0.7053805 -0.66770065 0.93682563 0.92647755 -0.12524615 0.4245173 -0.9271552 -0.66066307 -0.32096547 -0.46034214 0.39552438 -1.7871011 -0.95114046 -0.8644142 0.0077996557 0.18975358 0.009235322 1.6337249 -0.5274215 0.8027951 -0.09889882 0.4119292 0.05720854 0.38058454 0.4980762
876 0.93479353 0.031069724 0.468663 1.0322895 -0.2546095 -0.51744133 0.3589389 0.9334512 -0.8514503 -0.24528432 1.6868241 0.19291396 -0.15732104 0.07238492 -0.05013527 -0.5136672 0.52976424 -1.3032768 1.1565629 1.0781387 1.0044944 0.36532676 0.057443053 -0.3128251 -0.381068 0.35643217 -0.57514626 -0.16671269 -0.52334493 0.23583323 -0.28967744 -0.007816119 -0.14377324 -0.13297817 0.840891 -1.2994833 -0.24218279 -0.7512868 0.052104622 -0.09798651 -0.56250465 0.2421906 0.13739896 0.3966506 0.46587667 -1.0492452 0.12747179 0.54970324 -0.6327196 -0.18323825 0.2677326 0.37324187 -0.21655288 0.9921247 -0.33373666 0.046957545 0.34330297 -1.0056344 1.3868786 -0.1476774 -0.24972218 0.22901683 0.92937094 1.0636425
439 -0.45428896 -0.27093214 0.61488277 0.4516437 0.1452799 0.006419468 -0.4207929 0.16707481 0.09707623 -0.75778496 -0.12648796 0.62958795 0.10937087 1.3889331 0.42696637 0.078669585 -0.21283957 -0.45489037 0.571906 0.9047383 0.41242692 -0.1702755 -0.055039987 0.8704869 0.30707628 0.6129256 0.7907384 0.8665367 -0.668409 0.6099341 -0.006134394 0.051428866 -0.32207325 0.78542703 0.47976464 -1.5480363 0.36699915 1.1201372 -0.23895027 -0.5771844 -0.8947185 0.8486584 0.09346965 -0.23192357 -0.7476968 -0.58260536 -0.4319353 0.9739107 -1.6992472 -0.33688006 -0.34754613 -0.24565625 -0.4450095 0.85914934 1.2299901 0.13055766 -0.15389381 0.044890627 0.5324567 -1.4036843 -0.14340071 0.4593518 0.087103345 -0.03542223
814 0.6337483 0.16975549 -0.21429038 -0.06960159 0.21390577 -0.9446075 0.39371145 0.6775535 -0.057983264 -0.13733244 0.47047377 0.3676314 0.08000167 -0.3961477 0.5090059 0.33250687 0.3966604 -1.3201151 1.0429096 0.20899968 0.77342916 0.0050729215 0.5425479 -0.42255852 -0.5535992 1.0618951 -0.38106263 -0.29422134 -0.43928957 0.93465817 -0.73641187 -0.5312853 0.30392253 0.32886377 -0.08595253 -0.098910674 0.002390049 0.122724585 -0.075970635 0.09469303 -0.9864728 1.5718465 1.5357732 0.2479006 -0.58235204 0.28297752 -1.1880575 -0.14387423 0.12141101 -0.13261563 -0.7135 0.40445244 -0.31199574 1.1711857 0.040289216 -0.20134115 0.40055576 0.19167319 -0.005082911 -0.60358083 -0.061863404 0.12440428 1.04297 -0.5984685
999 -0.47586095 0.8179532 0.65668535 -0.08594493 -0.57230395 -0.082599916 -0.17355904 1.4974532 -0.43836278 0.14990838 0.032854136 0.20105898 -0.73226386 -0.1920413 0.3044635 -1.1506011 -0.5543546 -0.3473674 0.49587855 0.4894165 0.10418399 -0.38585803 -0.47369948 0.13181879 0.47406003 0.28908372 0.061230928 -0.77830696 -0.086509176 0.39846683 -0.49737793 0.060345195 -0.7445828 0.69481075 -0.20470145 0.55895317 -0.80913836 -0.044238057 0.4543954 -0.016298931 0.15427513 0.47104144 1.0095546 -0.26941523 -0.08487082 0.529514 -0.99649453 0.22936346 -1.7942681 -0.102808684 -1.4502149 0.043862727 -0.48619848 0.4622736 -1.2858478 0.37106502 1.3488702 -1.0091003 0.18076895 0.15919358 -0.64248854 -0.5114538 0.8782918 0.47571382
488 1.207747 0.50632125 -0.112995684 0.337402 -0.6410372 0.5156976 0.13054316 0.6611372 -0.9581703 -0.26802832 0.9148833 0.44304326 -0.2570699 0.52110946 0.23253842 0.14788632 1.0650389 -1.4066064 -0.29167104 1.8632362 -0.44746834 -0.18330598 -0.66378665 -0.30934003 0.9197497 1.6759715 -0.30850908 -0.008226118 -0.76014036 0.18653181 -0.4488772 0.1577579 0.70295453 -1.2921169 0.7263367 -0.70954835 -0.45449588 -0.31774577 0.018271497 -1.0060945 -0.0076503702 0.11237242 0.0028912898 -0.44781977 -0.13607088 0.34655136 -1.2750794 0.016090563 -0.6867056 0.25562465 -0.42036444 -0.15264787 0.115075454 -0.5171065 0.6740906 0.036252365 1.3625485 -0.12130833 -0.44379857 0.23809306 -0.007985453 0.43001786 1.1160713 0.326354
862 0.5691331 0.23836297 0.07838304 -0.7174526 0.3973782 -0.36721575 0.53671503 1.4949805 -0.2646237 -0.74101514 1.4817672 0.085740685 -0.83843786 1.1098 -0.009741488 0.33876657 -0.15751863 -0.24406436 0.8156544 0.48612845 -0.009461345 -0.37629095 0.4814463 0.27506086 0.015303731 0.4430157 -0.16949435 0.031470735 -0.7241314 0.20879208 1.2455842 0.57174337 1.2538762 -0.038069908 0.34326288 -0.49082366 -0.4309575 -0.2128542 -0.8318066 -0.37018815 -0.39168426 -0.13817677 1.3802342 0.24987112 -0.58226305 0.3081778 -0.38104725 -0.5116467 -0.82988816 0.056060024 -1.198495 0.09124828 -1.0366999 -0.029811088 -0.1859992 -0.90278566 1.2031342 -0.551207 0.1343975 0.9065638 -0.313753 -0.27869928 -0.649075 1.1013217
1599 1.109842 -0.4667908 0.8488579 0.36381358 -0.056199513 -0.81955975 0.9596913 0.70030737 0.33619702 -0.2408475 0.97552127 0.6777893 0.19258584 1.2717556 -0.046018418 0.90211 -1.1669028 -0.74003357 -0.120063685 0.3601076 0.22652364 -0.31579056 0.41994813 0.51766974 0.11939025 0.76520115 0.023636073 0.39579785 0.4289866 0.5685459 -0.44277054 0.051327147 1.2531137 -0.19716033 1.3748308 0.074696295 -0.92539024 0.25680366 0.5528437 -0.78762656 -0.53253347 0.73643017 0.6989209 0.19894364 -0.34455884 -0.20196478 0.13398145 -0.10362478 -1.0615107 0.2953204 -0.056249168 0.6731551 -1.7930675 -0.27047464 0.48012468 -0.26794168 0.5648852 -0.7682319 0.19668123 -0.84462774 -0.02136094 0.4689614 0.08692348 0.31180543
926 0.48194277 1.492456 -0.43704057 -0.31645972 -0.04598332 -0.23656082 0.002643797 -0.08708589 -0.2668239 0.13733079 1.115369 1.6095432 -0.1469212 -0.07553642 0.17233926 -0.59114224 -0.12424018 -0.10687701 0.5755286 0.6523122 0.2834389 0.07769352 0.23910673 0.5451602 0.009264365 0.09871367 -0.096557714 0.45417473 -0.31938842 0.7502546 -0.70503545 -0.7136204 0.49243352 0.25985906 1.4383149 -0.57318395 0.22986126 0.20107152 -0.23874648 0.35435802 -0.09956446 1.3357246 0.6474747 -0.96620953 0.040942993 0.354672 -0.44750988 0.08323088 -1.0928382 -1.1051507 -0.118208975 0.78815293 -0.93033946 -0.28242138 0.9465538 -0.22310804 1.6496514 -0.12084013 0.21985044 1.041804 -0.23837219 0.14719068 0.5264837 0.5315512
354 -0.117309436 -0.21136527 0.69150585 1.3813382 -0.38864675 -0.19385442 -0.16065145 0.13558625 -0.7821437 -0.8165751 -0.54201007 1.0334203 -0.30143708 0.9980871 -0.67398703 0.13546602 -0.7922624 0.11728591 0.32889694 0.88975966 -0.14619909 0.24730264 1.1828315 -0.60172766 1.0352602 0.87567 -1.1443423 0.2322514 0.38631997 0.37835205 0.74350506 -0.12682718 1.0082461 0.5035831 0.17834564 -0.06926027 0.57209855 -1.1791345 -0.12349868 0.46936998 0.6462741 0.9061301 -0.75159895 0.13927622 0.901448 0.041835703 0.0820904 -0.36416167 -1.3452568 -0.23134367 -0.59754205 0.8090281 -1.0116146 0.978276 0.8041894 -0.020063888 0.55236197 -1.0494335 -0.37626657 -0.1774475 -0.27704957 -0.18764113 0.9097312 0.05754408
659 0.2799741 0.7411274 -0.6480859 0.0794224 0.34025964 0.3279406 -0.2799964 0.46072698 0.25751057 -0.5436938 -0.8437303 -0.81816995 -1.3465904 -0.14202192 0.5635978 -0.60488135 -0.4979348 0.09116473 -0.122582816 0.16812354 -0.2547672 0.22182152 -0.21200724 -0.03132288 0.663759 1.1110003 -0.51096445 0.21656208 0.16441147 0.17861935 -0.27924123 0.81083494 0.9480854 0.48426893 0.25784808 -0.8064545 0.3880531 -0.22116983 -0.27076662 0.6859411 -0.114440374 -0.22657916 0.8034973 0.2998785 0.13582164 -0.48865843 0.05620728 0.4252694 -0.89280856 0.55500394 -1.2420895 0.6117095 -0.3306508 2.056085 0.7179373 -0.12972972 0.8131268 0.014212737 -0.19564201 0.5038307 -0.27442867 0.11064826 1.6575776 0.2870161
1460 -0.3891063 -0.04728247 0.09743113 0.45365041 -0.19200104 -0.6271326 0.31697553 0.8205582 0.4967135 -0.39809835 0.052648913 0.26264 -0.61414355 0.10292808 0.57755816 -0.6762595 -0.72489554 0.3289748 -0.14751612 0.3597081 0.21814814 0.4827956 -0.7608832 0.89647 1.0694983 0.50900245 -0.15908355 0.046659395 0.2924056 1.9230729 -0.22269523 -0.048477568 -0.052347712 0.062041197 1.2059999 -1.125231 0.021919675 -0.3621521 -0.15294246 -0.4018061 -0.13074875 1.2052361 0.17045543 0.5899197 0.54373986 -0.5220324 -0.5204022 -0.17160489 -0.4015172 0.7533644 -0.7814502 0.3027564 -1.8118597 0.5630708 -0.2339799 -0.07951367 -0.7918716 -0.4330125 -0.004138339 0.28223726 0.028815186 -0.6630647 0.5996002 0.45034787
753 1.1808883 1.0965518 -0.10901003 0.9119033 0.6425686 -0.6692853 0.7010621 1.0070624 0.019243758 -0.40014434 -0.8148262 0.5242944 0.055459708 -0.20460483 -0.24053621 -0.07245852 0.2779909 -0.0750181 -0.17586605 -0.1372363 -0.21379241 0.6834831 -0.64263105 -0.98690873 -0.20725463 0.616794 -0.13681091 0.48695448 0.1935081 0.10483498 -0.7112823 0.11142081 0.65153754 -0.14076723 -0.31303445 -0.6986189 1.02587 -0.4055877 1.0776272 0.5322661 -1.0191423 1.2881318 0.15778306 -0.03705618 0.6647159 0.4578535 0.29164892 0.6704738 -0.84898204 0.7890016 0.4116916 -0.95770776 -0.45512676 0.27996287 -0.5083124 0.85898185 0.5241535 -0.027271345 0.35865754 -0.31068274 0.5760004 0.22672817 0.90031815 0.52775973
447 1.0722271 1.5042874 0.8762523 0.3480608 -0.6205447 -0.8767811 0.20881295 0.72154707 -0.10837647 -0.70275664 -0.36665568 0.16749835 -0.63264006 0.7284263 0.2120053 0.5300312 -0.51542956 0.32464582 0.7858551 0.12811372 -0.7314846 0.5167121 0.27908134 0.65235037 -0.4409643 0.97719485 0.39575827 -0.5976213 0.1261248 -0.016664274 -0.6095684 1.3724473 0.13946149 1.1366187 -0.94177043 -1.3084881 1.2821239 -0.31205517 -0.06300536 -0.6265928 -1.4325033 0.2874197 0.15145715 -0.8634609 0.56288344 -0.3843665 -0.27403685 0.39972937 -0.8474679 0.30530456 0.5678521 0.13164125 -0.7783182 1.2005687 -0.10151395 0.5664793 0.13663277 -0.12544481 0.60893583 -0.46176887 0.652053 0.889434 -0.056570247 0.50874776
1787 0.7977587 1.0172389 0.9992342 0.46084082 0.9651944 -1.346307 0.44281432 0.69635826 -1.0398549 0.42268166 1.048822 0.10181972 -0.4696749 0.062752634 -0.6422138 -0.6301254 -0.07064353 -1.3659298 0.45956355 0.16366364 -0.16241872 -0.91867554 -0.19601403 -0.70318276 0.19964273 0.6717637 0.04659089 0.15311714 0.78864086 0.7327802 0.025764935 0.3121756 -0.6945338 -0.2787799 0.37102085 0.34221995 0.7171271 -0.92279905 0.34840468 0.7628914 -0.16081087 0.570906 -0.41645446 0.4531363 0.9228286 -0.67395896 -0.20517269 0.39961797 -1.9054878 1.0606554 -0.68444014 -0.1842776 -1.2847102 -0.49827766 0.11451499 0.026698094 0.46476963 0.1697491 -0.5625938 -0.36295363 -0.33382943 0.10087876 0.45957038 -0.30158302
631 0.6370273 1.4793807 1.0564216 0.040440198 -0.12638772 -1.1472043 0.39129007 0.7309682 0.2884201 -0.83104956 -0.4936722 -0.0965234 -0.2556805 -0.030853737 0.85535187 -0.56079304 -1.1688616 -0.4492322 1.6658357 0.4982601 -0.8250361 0.06185422 -0.41820565 0.18387195 1.3216434 0.79628783 -0.6472206 -0.21480684 0.8898717 0.7433333 0.27386856 0.013337989 0.46783906 1.0679133 0.08782049 0.3831328 0.31044587 -0.09503158 0.750537 0.07580708 -1.2905278 0.68286407 0.40909368 -1.04018 0.37046912 -0.46176317 0.23750767 0.3180239 -0.1901478 0.33923835 -0.20810916 -0.16683428 -0.49555853 1.0999124 -0.38445926 -0.09674115 -0.09130793 0.31426206 0.37933043 -0.041026406 0.91162217 -0.7462606 -0.30623153 0.68806237
3043 1.2065752 1.2324499 0.68647426 0.57568246 -0.6424566 -1.174492 0.90326303 0.5419628 -1.3029761 -0.18574245 0.3807337 -0.70166457 -1.110018 0.3267881 -0.07015982 -0.23341407 -0.42681575 -0.37529266 0.90873563 0.008084012 -0.43926203 -0.22557607 0.36660337 0.73188794 1.6210202 1.6637677 0.16080971 0.050791338 -0.5835318 0.1976811 -0.3068777 0.49793893 0.32172948 -0.1370626 0.16122086 -0.67730945 0.75182533 -0.75065726 -0.0845138 -0.14483902 -0.7680733 -0.6100806 -0.34037802 -0.7249647 0.90141875 -0.08672078 -0.016788358 -0.09916287 -0.25266182 0.3016953 0.032182522 0.2923415 -0.3725141 1.8213333 -0.19269109 0.56387794 0.15885282 0.6680735 -0.34096244 0.13894798 0.986732 -0.19838248 -0.20593965 1.0208755
1500 1.7562981 0.8498947 0.5706387 0.7995201 0.6864599 -0.5323134 -0.006980561 0.19894165 -0.9389544 -0.2317041 -0.18840452 -0.4076169 -0.6015387 0.59429264 0.44446388 -0.56974435 -0.5810648 -0.76413375 0.18301448 1.0303934 -0.78681785 -1.2477082 -0.8986138 -0.7001244 1.1715666 -0.35004997 -0.12522593 -0.7731652 -0.060484063 1.5327967 -0.39521793 0.35001647 -0.7871134 0.41277415 0.20117043 -0.45844498 0.05108243 -0.62120736 0.17961569 0.5066403 -0.95053804 0.29299316 -0.42822644 -0.8412276 -0.41397715 -0.05818391 -0.19251715 0.7731018 -1.1518881 0.7501369 0.5097687 0.94862384 -0.99816924 0.36371398 0.86172354 -0.016445775 0.1353126 0.5289313 0.23154211 0.1984575 1.0633953 -0.87597233 -0.23498447 0.47446966
691 0.35245147 0.2724808 0.3114217 0.077207565 0.10590017 -0.9321181 -0.7603954 0.45938477 -0.58310014 -0.61746025 0.6188099 0.06116648 -0.9714413 0.46294358 -0.5550083 -0.42129666 -0.8286839 -0.70122194 -0.7170308 -0.59508103 -0.08151857 -1.2398118 0.052672923 0.31503117 -0.44728395 1.0110451 -0.84454364 0.07988239 -0.88688 0.7806135 0.21622244 0.3483911 0.7137897 -0.7380147 0.6937587 -0.5149412 0.6457314 -0.43707353 0.077448644 -1.3107834 0.04394917 0.0006165238 0.08396901 0.09133247 -0.008248794 -1.2276818 -0.78476906 0.47139174 -0.47733086 0.44531712 -0.44600347 0.039604172 -1.1727175 0.33185932 0.26392236 0.69461405 0.2891443 0.40990594 0.8123285 -1.0921422 0.5020614 -0.13189907 0.9255189 0.65429676
2080 0.12220282 1.0479573 1.2740799 1.1573471 -0.20419806 -1.4049728 -0.9835539 0.7480143 -0.82939744 -0.5708537 -0.11965677 0.38164595 -0.95068645 1.3771079 -0.06983683 -0.47201812 -0.8253624 -0.42541495 1.0441705 -0.42873564 -0.055033997 -0.33515742 -0.09966871 1.2375195 -0.3353265 0.80914485 0.2919895 0.077045865 0.4006495 0.43468815 -0.40178695 0.8209243 0.17830664 -0.33763477 0.15619408 -0.65889704 0.48332015 0.16265595 0.4883526 -0.27364594 -0.51054317 -0.31365925 -0.95867294 -0.84310776 0.5678877 -0.16227797 -0.11123408 0.64474976 -1.6860508 0.5828816 -0.3330753 -0.46139425 -0.44266576 -0.3316129 -0.97303015 0.30380806 -0.083741665 -0.57396483 0.08359816 0.2228521 0.16680281 0.113431334 -0.11628427 1.2155721
917 0.34554937 0.5627582 -1.1466842 0.56459206 0.38252956 -0.315024 0.32637343 0.93682575 0.18645214 -0.23002088 0.20876612 -0.60852623 -0.6504064 0.32082093 0.38909164 1.1610842 -0.2746043 -0.7274019 0.80705595 -0.0822222 -0.36266124 0.0015849834 -0.006519265 0.3108109 0.810066 1.3580874 -0.5551429 0.18920502 0.11455695 1.1948153 -0.5887082 -0.07251221 1.1259987 1.3258978 -0.076087736 0.11370995 0.6828034 0.5987469 0.8859369 0.028276827 -0.7779387 0.4808576 0.44708183 0.2988652 -0.6456445 0.53754646 -0.26319134 -0.37088054 -0.68860525 -0.37674472 0.051972758 0.9970008 -0.43112502 0.93171823 0.5605444 0.006396377 -0.22522986 -0.3913883 -0.55272484 -0.5417868 1.05218 -0.033332817 0.38152108 -0.64572936
505 0.42629653 0.8267615 -0.070726685 -0.29529917 -0.6724187 -0.9899997 -0.85510755 -0.77420187 -0.6781366 0.66548246 1.2102116 0.12298858 -0.72901034 0.47788265 -0.5205869 -0.3942366 -0.33388466 -0.5845476 0.27087235 0.16838364 -0.019705286 0.24632649 -0.17110619 1.1240826 0.48166773 1.1303015 -0.39713508 0.048808657 -0.20888968 0.91395247 -1.5722134 -0.14257306 0.562091 -0.12203867 -0.3139506 -1.1191941 0.17909685 -0.5604042 0.10205774 0.5714795 -1.0692106 -0.84082866 0.8932269 -0.55175716 0.25216556 -0.036066968 -0.28812486 0.31801835 -1.6369891 0.09912777 -0.58684355 0.43180665 -0.7773863 1.2006617 -0.01991019 0.23870626 0.8036406 0.31648725 0.5305866 -0.7248239 0.25619063 -0.58549154 0.87705415 0.8879104
1857 0.44565913 0.6477148 0.3610358 0.9927579 0.38991672 -0.49556723 -0.54311025 0.2031213 -0.9838516 -0.15136944 0.6979853 0.19640297 -1.1518419 0.1802037 0.23057324 -0.019612217 0.40035066 -1.914246 1.1659763 0.060639188 -0.41801015 -0.282749 -0.4729336 0.019714175 0.9737991 1.636754 0.38802132 -0.59002864 1.2197813 1.160576 0.10463442 -0.4375373 0.21542506 0.14021641 0.22805494 -0.34987524 0.068035476 -0.43239853 0.0683996 0.42867061 -0.6229825 0.27455088 -0.31774473 -0.7915222 -0.09592601 -0.12489642 -0.05390728 0.42517993 -0.79425293 1.6039916 0.11233012 -0.3728277 0.0905012 0.5941224 0.61396545 0.3387058 0.62964696 0.7000557 0.42156073 0.31172407 0.15158883 0.74870986 0.8222363 -0.715129
887 -0.20713916 -0.29065114 -0.9664504 1.6448807 -0.1151935 -0.45593056 1.367439 1.0582591 -1.2298373 0.29117337 -0.2324869 0.08825795 -0.4389448 -0.43254864 0.27165505 -0.40650055 0.24218586 -0.7584668 0.06027902 0.4143538 0.081164725 -0.36852628 0.43842086 0.04720246 0.4981018 0.9657744 0.6736893 -0.2985421 -0.3961206 1.4481511 -0.10483278 0.6184145 -0.021700773 0.48509073 -0.06360068 -0.9690956 0.6359809 -0.37498742 -0.26700982 0.36620426 -1.0861566 -0.22566913 0.05505323 -0.5505827 -0.0010903577 -0.545332 -0.49653912 -0.18028982 -0.53024405 -0.27845567 0.7981659 -0.021396745 -1.3117819 0.785832 -0.6761375 0.25728658 -0.13589433 -0.9285259 0.44342995 -1.0712566 0.19798158 -0.099050604 0.74568796 0.10583777
2006 0.63328695 -0.11608657 0.41780773 0.810121 -0.59298337 -0.8940937 -0.2037149 0.32107943 -0.73316216 0.0074480353 0.5562351 0.29578057 -0.9284153 -0.45082662 -0.310204 -0.08806843 -0.757279 0.17035612 -0.15615109 0.13715516 0.018392801 0.48827127 -0.8813814 -0.78790766 -0.18185726 -0.053541973 -0.1504296 0.55427146 0.35584408 0.30404043 -1.0438237 1.2661822 -0.20151742 -0.31497705 -0.18247555 -1.2839062 0.36832675 -0.27871197 0.94208694 0.03012159 -0.54243076 0.45433658 0.19953066 0.3399364 -0.24903397 0.8053881 0.18218397 1.191704 -1.166698 -0.18230774 0.20188802 -0.6331474 -0.46370745 0.55015653 -0.75055164 0.3335573 0.68878114 -0.90029436 -0.18193516 -1.0263922 0.42491895 -0.34936184 0.9410642 0.45417458
1690 0.4285398 0.51875967 0.005723969 -0.27654904 -0.19725071 -1.1568949 0.08511084 1.4837245 -0.7513295 -0.21014875 0.5141223 -0.9540633 -0.15392789 0.16230887 0.24192534 -0.6142793 -0.04157085 -0.067930475 0.8281845 0.62730485 0.06290172 0.010289064 -0.14135823 -0.37513122 1.2578219 1.4911706 -0.31416726 0.8086841 0.34550995 0.44569376 1.0472653 0.87620157 0.113878764 0.64085835 0.8674262 -0.89318144 0.3997603 0.3662685 0.5830186 0.13063213 -0.061643917 0.0036600775 0.14660074 0.3468736 -0.23414563 -0.072928935 -0.34446055 -0.24472557 -0.8508529 -0.5410318 -0.5249319 -0.16470827 -0.41163766 0.92151713 -1.6467513 -0.48162773 -0.65555435 -0.4588615 -0.7362118 -0.37260237 -0.20668073 0.3934442 1.3928504 0.12962975
2105 0.8630339 0.66321176 1.1545393 0.6914838 -0.6485047 0.045516707 1.1148765 0.26015753 -0.788713 0.2348441 1.4918696 -0.53761715 -0.47269812 -0.4150373 0.8422767 0.53243047 -1.4645252 -0.14363885 0.6210592 0.48634195 -0.68078953 1.1430365 -0.040300734 -0.050450556 0.8303194 0.93882585 0.2368918 -0.9383271 0.15614556 1.0478448 -0.21158281 -0.2719161 -0.1068585 0.4311166 0.53111845 -0.924615 0.22969326 0.48087755 -0.62656635 0.41607985 -0.62239665 1.2393466 0.5266659 -0.19372815 1.1440908 -0.25978038 0.63231254 -0.18314426 -1.2110549 -0.4959534 -0.5164486 -0.95808256 -0.967142 0.009981977 -0.08431816 -0.03153768 0.34985596 -0.19911247 0.08013095 -0.11332848 -0.08353899 -0.22745234 -0.28319755 -0.21672347
763 0.9179061 0.05875432 -0.15457709 -0.55568326 -0.47957367 -1.1559507 -0.4349608 -0.16082512 -0.51371336 -0.33051112 -0.1748172 0.010733149 -1.4844524 0.43928778 -0.17809042 0.16886805 -0.754252 -0.6038614 1.0847052 0.5494041 -0.7026176 -0.39144087 -0.68749505 0.006553723 0.41846058 0.18717985 -0.9822667 0.3254076 0.8568955 1.0874869 -0.56201166 1.4719758 0.23381563 0.9617558 -0.53040725 -0.1933301 0.041208807 -0.6106395 -0.35286194 0.04131745 -0.23973949 -0.11029257 -0.44461825 0.77142227 0.771369 0.7151364 -0.4398651 0.31933177 -0.9268015 0.07349412 -0.9068305 0.69652164 -0.5676931 1.1621612 -0.59396726 -0.2647717 0.3750737 -0.86432743 0.57452 0.276054 0.7276842 -0.9307223 0.75441045 0.40481734
615 1.4054743 -0.398377 0.31841385 0.14585535 1.2917544 -0.20957856 -0.7735635 -0.73480153 -0.6583096 0.6783937 0.9945759 0.7397911 -0.06297836 0.5485932 -0.56622195 1.0077835 -0.16042742 -1.8523598 0.56579864 0.39661252 -0.1463272 -1.147583 -0.42031023 -0.12003083 0.7430561 -0.43342373 -0.6850807 1.4038074 -0.79154336 0.50571823 0.46517333 -0.4850185 -0.28950396 -0.111386135 0.67923087 -0.20692 -0.1410779 -0.38281024 0.27826434 -1.0830171 0.52325463 0.38989586 0.81825006 0.17783473 0.11539113 0.8152285 -0.79061306 0.09514726 -1.8047367 -0.082186714 1.2147752 -0.8625879 -0.62176466 0.2737513 0.15534425 0.329518 0.09378017 0.28446195 -0.75912136 -0.55778533 0.12568367 -0.5359164 0.6601183 0.052129436
1386 1.2467344 0.79980063 -0.234626 -0.52738506 0.5914722 -0.89973444 -0.9391789 0.6915276 -0.9382927 -0.44682956 1.7539129 0.96487474 -0.39214516 1.1081096 -0.3354129 1.545736 -0.29000708 -0.849735 1.7363542 0.516128 0.013249892 -0.518099 0.8111253 -0.23274434 -0.09149205 -0.11167587 0.22875088 0.17751954 -0.17810987 -0.78189766 0.06496977 0.17200488 -0.29681954 -0.15057829 0.15855354 -0.8262903 0.71747404 -0.33567935 -0.23169222 -1.478602 0.53355515 -0.21244285 0.47630122 0.030201616 -0.26763242 0.48280156 0.030135632 -0.15399553 -0.78944707 -0.6093234 0.29395673 -1.2791649 -0.005366857 0.10922146 -0.48550734 -1.0295205 -0.16868736 -0.1324057 -1.0158201 0.7661415 0.4733181 0.3603455 1.4284558 0.33802268
3286 1.2387177 0.78257394 -0.71712655 -0.2866773 0.45780608 -1.058132 -0.30594224 0.032130253 -1.2015936 0.40235013 1.7603185 0.4123593 -0.38758853 0.21914746 0.08208553 0.3178874 0.7123327 -0.014509542 0.6197927 0.35327354 -0.3780668 0.4130498 0.430989 0.089282095 -0.3264186 0.47898716 -0.73594975 -0.18801753 -0.6499485 -0.13591547 0.1454638 0.24012426 0.3869315 -0.5137786 -0.41763046 -0.8679555 0.43013847 -0.19602913 -0.39275306 -0.32684225 0.92168844 0.53040904 0.8165524 -0.27857944 1.0163552 0.69479144 0.14443193 -1.033122 -0.3636606 -0.9891451 0.5888059 -1.6258286 -1.1690975 1.05357 -0.3790936 0.42356673 0.427134 -0.5924678 -0.62121266 0.7261565 0.3875975 -0.5283502 1.5435505 0.33715555
1878 0.10105024 0.9481769 -0.13670869 1.4916402 -0.48730642 -1.1469841 0.34309164 1.0689718 -1.3512964 0.28147003 0.48008248 0.51993275 -1.4700547 -0.3379091 0.5689871 -0.08683335 0.56444675 -0.2719223 0.0098509 0.31159878 -0.35481963 0.05662664 0.5850331 1.5167933 0.13570568 0.85715973 0.13883384 -0.33563766 0.5505601 0.38210613 -0.33753043 1.486745 -0.5115471 0.50949854 -0.07734758 0.6580582 0.28232148 0.12546347 -0.5894554 -0.5068265 0.91475314 0.69384414 -0.7052647 -0.1555166 -0.013919476 -1.2503974 0.11775175 -0.7172021 -1.4159368 0.6329176 -0.20889995 -0.18704882 -0.5206007 0.32718757 0.5947767 -0.63461035 0.54476666 -1.1034517 -0.5286397 0.39291456 -0.6610209 0.8281216 1.3594211 0.0065824827
1646 0.9225473 1.0178055 -0.47156936 -0.57683396 0.7684456 -0.9264165 -0.019784193 0.58551717 -0.35060456 0.041093998 0.32627296 0.5172586 -0.6511865 -0.07969286 0.38895375 -0.14149758 0.68668526 -1.0584049 0.9880913 -0.13467655 -1.1543577 -0.727595 0.50057286 -0.04167793 -0.18174608 0.84163994 -0.41654816 0.31518665 0.20855106 -1.0972013 0.43772593 0.6328784 0.5774155 -0.19525185 -0.67768884 -0.16367096 -0.18454328 -0.7409516 0.43287405 0.0049788295 0.049123574 0.29561776 0.43219575 0.24251857 0.38134775 1.2393287 -0.8139042 -0.09610331 -1.1230322 0.16180508 0.8375192 -1.7298111 -0.18618195 1.6359037 -1.5000296 0.39458576 -0.015014926 0.09724834 -0.1609699 0.32183912 1.4552567 -0.66632587 0.6702197 0.021540655
2832 0.7361089 0.6208407 -1.1801268 -0.08443284 0.27323133 -0.9780297 -1.104998 0.30487218 -0.37672594 -0.16401312 -0.22581753 0.5378268 -0.11683739 -0.14936294 0.5072607 0.030064417 1.3524504 -1.2486835 0.032957323 0.23701286 0.40173927 -0.8492354 0.43780953 -0.6906179 -0.049901 0.026889216 -0.03144665 0.67064303 0.2850601 0.2570534 -0.31460318 -0.4114668 -0.8795952 -0.21407937 -0.6151954 -0.35873178 1.0868632 -0.9950889 0.4085853 -0.6620689 0.9545308 1.4293656 0.0622696 0.24526837 0.13039067 0.4446546 0.005291979 -0.49313983 -0.90987355 0.043120995 0.082240134 -0.94598985 -1.0766813 1.4603714 0.005289873 0.38655716 0.26312974 0.28729957 -0.7086413 0.16086559 -0.5425764 -0.19236581 2.3790164 -0.8569294
608 0.9026981 0.0062770545 0.036056798 -0.43172202 1.1919982 0.0034912128 -0.9896101 0.8964956 0.2790974 -0.045034394 -0.64980483 -0.25435022 1.07376 0.5422786 0.16750002 -0.026701704 -0.7323799 -0.6060976 0.1809543 -0.8449493 0.106571704 0.02276661 0.20111085 0.5467683 0.26934314 0.4047293 0.28521407 -0.3955734 -0.012245593 0.2898639 -0.52517205 -0.562415 0.06589302 0.31298256 0.29155198 -0.8899155 0.3444067 -0.051524155 1.0339528 -0.6531055 -0.24506798 0.6151009 0.39362422 -0.10127244 -0.15885177 0.30092058 -0.093825504 0.38102087 -0.94276404 -0.8702483 -0.21491961 -1.0836055 -0.25964275 0.3414428 0.29927638 0.7735925 0.18150951 -0.7224511 0.42221168 0.6907109 0.37820628 -1.1560754 1.9066733 -0.2597216
0 0.4753249 0.5496299 -0.2654635 0.0817318 0.21582907 -0.58106077 -0.34629145 0.18048406 -0.6953538 -0.18681763 0.52851635 -0.30606616 -0.64219517 0.3055404 0.059770487 -0.5876786 -0.6832752 -0.7540362 -0.6701913 -0.6167484 -0.32787454 -0.854628 0.10532771 -0.126852 -0.6229178 0.5083483 -0.9844983 -0.057416435 -1.1858864 0.3162301 0.14814153 0.32878354 0.71129334 -0.65953827 1.2923579 -0.005323434 0.17006472 -0.30104706 -0.37994492 -0.8841079 -0.18343565 -0.16636193 0.10534777 -0.01784108 -0.1105116 -1.1515107 -0.8255656 -0.020675587 -0.9763752 -0.120029844 -0.10058609 0.2276181 -0.97519416 0.32121816 0.019376453 0.70213896 0.42325085 0.08860614 0.6949954 -1.0320357 0.75728565 0.3678438 1.3696413 0.9899978
2593 -0.1012855 0.7264932 -0.49326313 -0.21632862 0.40324655 0.73321694 -0.23910305 0.7046532 -0.040312383 0.037274063 -0.5924444 0.52002424 -0.3964724 0.011714771 -0.1806634 -0.32857248 -0.6055125 0.30071837 -0.5138828 0.012387656 0.46624768 -0.21935093 0.30168873 -0.41247803 0.10823344 -0.60223216 -0.19788226 1.4056764 -0.5056749 0.31302705 -1.2945806 -0.3202618 -0.56370807 0.63904077 0.32020336 -1.1020613 -0.111492604 -1.2117991 -0.6868112 0.06979088 0.14875029 1.675899 0.78756 0.17637822 -0.86611843 1.0514984 -0.5685323 -0.13891284 -1.3578948 -0.75759274 -1.2037406 -0.101141185 0.09744562 1.6713936 0.10405097 0.7369519 0.963308 -0.0027150717 0.00051921647 -0.47895083 1.2002562 0.14886801 1.4314842 -0.15672988
3125 0.21181726 0.8285178 0.020970749 -0.08941835 0.82473344 -0.6278253 0.8429423 0.24113327 -0.5838696 -0.0753621 0.19691406 0.28507373 -0.053132497 0.012046854 -0.3120442 -0.58895856 0.24565846 -0.40577438 1.2454269 0.022384813 0.40047595 -0.23898388 0.7793266 0.6486651 0.15622817 -0.094042525 -0.3047794 1.1301005 0.29285532 0.91886675 0.2595699 0.39304885 -0.22632216 1.53369 0.33476606 -1.2162869 -0.8304762 -0.4247228 -1.0413266 0.47783148 -1.1802163 0.474559 1.3585688 -0.5828426 -0.57011455 0.52397364 -0.7536866 -0.39875218 -0.6883951 -1.1700886 -0.2778114 -0.7334886 -0.4250293 0.81019354 -0.4204472 0.24302623 -0.4559312 -1.0097184 0.051672366 -0.7293558 0.9531684 0.13028261 0.13883282 1.2199569
2083 0.2010997 0.5711371 0.93393415 0.023148319 0.78271574 -0.087604694 0.59753484 0.12009275 -0.037713755 -1.0313202 0.62209785 -0.28371647 0.64808655 0.49336335 -0.47206798 1.0763128 -0.88641495 -0.42811725 1.20949 -0.0218873 0.108061336 0.4168862 0.18674783 -0.2740013 0.20013018 1.193364 0.9397077 0.90739614 -0.3425727 0.5531859 -0.78336865 -0.21072198 0.3092601 -0.10774451 -0.25609985 -0.8126941 0.09664871 -0.20888838 -0.6157438 0.7426138 -0.50254357 0.15949346 1.1024115 -0.29881927 0.4550181 0.87941617 0.11552171 1.1033952 -1.1545398 0.48629722 0.113377884 -0.75888336 -1.7081901 0.08416487 -0.036243416 0.1974135 0.9846707 0.5127179 -0.21598443 -0.05958128 0.03583626 -0.37502667 -0.029455857 1.3090385
1634 0.3881081 0.88563395 -0.22549562 -0.05448112 0.74656606 -0.104252785 0.82586414 1.0545169 -1.4321772 -0.033400808 -0.08893768 0.58455324 -0.16962132 -0.06245493 -0.25433496 0.3524978 0.33965015 -0.8064797 0.806006 -0.002238518 0.0705785 -0.3664395 1.3381401 -0.3126469 0.03839168 -0.2622726 0.7891336 0.41152996 -0.65933645 -0.7776444 -0.13496351 0.7968422 0.5553867 0.6395614 -0.25452965 -0.6739502 0.67453146 -1.5900955 -0.96893656 0.36036885 -0.7468232 0.5974528 0.1646628 -0.6996396 -0.798722 0.13880226 -0.2577541 -0.16362503 -0.5800075 -0.64166486 -0.7649068 -0.6597203 0.23754387 1.0858275 0.21590278 1.0081353 1.5420572 -0.0710917 0.5608463 0.14890717 0.84126526 0.48274347 0.79415333 -0.12588885
739 0.6350451 -0.30076617 -0.6268551 -0.20975019 1.0212456 -0.12783583 0.31188798 0.77987033 -0.9444772 0.3484129 -0.112780854 0.21637039 -1.1879412 -0.025296925 0.8770191 -0.20268512 -0.36438292 -0.68186545 -0.09958619 0.54126084 0.25936761 -1.3630971 0.17264596 0.447888 0.737649 0.4055373 0.960812 0.022838581 -1.0346419 -0.026559306 0.0011274966 -0.2601128 -0.8144722 0.174259 1.0296813 -0.5278933 -0.37176645 -0.7240379 -1.3069062 -0.31578904 1.0361339 1.7492609 0.48663145 -0.62481797 -0.11815687 -1.1874139 -0.7220367 0.39722824 -0.8009476 0.41932073 -0.16434824 -0.1574825 -0.7160808 0.13567865 -0.3130024 0.8772779 0.75342774 0.15474832 -0.4494739 0.56390905 -0.10753533 -0.5178817 1.4273834 -0.3962251
1524 0.40636075 0.7756806 -1.0373464 -1.154434 0.25971562 -0.9208087 0.6936236 1.5409889 -0.38217944 0.17141072 0.113496535 0.91227925 -0.3885575 0.44931108 -0.18685772 0.67481333 -0.26439786 0.18074276 1.6831883 0.42242095 0.42304537 -0.16237594 0.119993106 -0.23476571 0.087037034 -0.6072187 0.0005821685 -0.012573738 -0.5630578 0.4469347 0.345683 -0.28849053 0.91712224 -0.07350814 0.28020436 -1.8737519 0.78030384 0.010847109 -0.64844495 -0.18644959 -0.28903705 0.68672055 0.28713417 -0.9548882 -0.16980045 -0.588387 -0.05903926 0.036576636 -0.21976624 -0.69384927 -0.6956761 -1.3326417 -0.299985 0.91260225 0.20597355 0.44733992 0.20351312 0.17114438 1.0979484 -0.5557179 0.9879771 -0.5243377 0.056743983 0.64822716
979 -0.31362158 1.0882567 -0.8848343 -0.6854914 0.23167373 -1.3228073 0.21645665 1.03714 -0.972475 -0.09872634 -0.5161477 0.28944892 -0.2115475 0.023400323 -0.010205152 0.055341497 0.3756888 0.47951084 -0.35970622 -0.28941542 0.34408918 -0.17080544 -0.28499952 0.9555688 0.15058291 0.88914484 0.09775819 0.045186985 -1.0679078 0.00064650364 0.2165413 1.0053886 0.7097835 -0.7792549 -0.3512528 -1.5813721 1.2753009 -0.21973087 -0.37628546 0.009215937 -0.31355083 1.2696105 0.10346722 -0.3515625 -0.811221 0.18599938 -0.81378716 0.45879376 -0.6246904 0.4389223 -1.0284907 -0.64002377 -0.1091562 1.2578868 -0.30005386 0.5133064 0.8666105 0.057225022 0.08076835 0.3871347 1.0040548 -0.42311224 0.587493 0.8500355
554 0.67879444 0.14026804 -0.7472807 0.30297807 0.60496825 -0.7478935 1.5064478 -0.12915318 -0.5795938 0.12878548 0.22903648 0.39939642 0.3134152 -0.5795729 0.364053 0.35181257 0.0670744 -1.4609298 0.57598263 -0.3111295 -0.34858528 -1.2076938 -0.11224486 0.64329857 0.16236709 1.1598424 0.26936427 0.21833271 -0.2681746 0.26251006 0.380957 -0.32921672 0.099386185 -0.7210841 1.0629929 0.017745454 -0.40355918 -0.5088774 -0.52331275 0.2190157 0.48091426 1.9335245 0.53748745 -0.6105492 0.30956626 0.05905355 -1.6124178 0.12517276 -1.0670867 0.6408033 0.69115293 -0.8865029 -1.3866942 -0.4363169 0.36151922 0.9583761 -0.35755378 -0.036677465 -0.70279884 -0.5235444 0.49941635 0.0048721684 0.7510378 0.32487673
838 0.63492405 0.9659541 -0.84478885 0.024221597 1.3451129 -1.3774991 0.8847366 1.5568322 -0.63078004 -0.30518675 0.5524575 0.77505285 0.18407875 0.56450635 0.16662641 1.2913593 0.09150801 -0.26849762 0.8240451 1.3913641 0.10098331 -0.5935878 -0.44352642 -0.44540855 -0.7588087 0.37217155 0.262839 0.16165128 -1.1500388 0.13203824 -0.0530009 -0.16203444 0.21585722 -0.06973601 0.18615769 -0.6482702 0.39504337 -0.15153976 -0.7374433 -0.3940932 0.5472244 1.4680128 0.13793093 -0.43320826 -0.012428022 -0.7336147 -0.15373242 0.36078906 -0.97816205 0.050719332 0.53229845 -0.7466242 -1.259618 -0.51842034 0.552815 0.42949685 -0.23737697 -0.20137814 0.9984709 0.19709127 1.3301712 0.03321599 0.042873766 -0.20869163
1710 1.3919275 -0.40513444 -0.5510153 0.2674835 0.35986674 -1.2281653 0.062868364 0.5548959 -0.2826513 -0.59932214 0.6009558 1.0916626 -0.4159061 0.06901923 -0.11287289 0.60882705 -0.674027 -0.2877851 0.5403847 0.73360085 0.6167509 0.24226354 -0.34150088 -0.78270674 0.082480475 -0.070531204 -0.05771688 -0.25376403 -1.3101078 -0.24054846 -0.58573616 -1.1575681 -0.56022304 -0.6098663 0.002021636 -0.8324261 0.28918445 -1.065804 -0.12538598 -0.088901006 -1.1111195 1.1199523 0.7715891 0.053947013 -0.28527442 -0.62674165 -0.49106085 -0.1064116 -1.3946997 -0.6540074 -1.0709815 0.11802368 -0.13807656 -0.5435667 0.37412596 0.99825203 0.82238364 -0.3831685 -0.74500763 -0.13622995 0.56736755 -0.2740571 0.37199003 1.2175187
1759 0.033091214 0.4873412 -0.12806179 0.6484888 0.31608257 -0.66372067 1.1573358 1.1976272 -0.48873597 -1.5921801 -0.71144927 0.12645711 -0.43859932 -0.31498143 0.15178022 -0.13539448 -0.87551546 -0.029127108 0.48930082 -0.49561456 0.79176325 -0.71562713 -0.63855934 0.63944227 0.014973665 -0.24847771 0.9148222 -0.08041047 -0.16042392 0.53397954 -0.7672838 0.39677724 -0.27904728 -0.09282066 0.032314382 -0.60292816 0.80864066 -1.3862789 -0.05932821 -0.8909513 -1.0280648 0.8501113 0.36295033 -0.13430539 -0.34414208 -1.0150037 -0.43673587 0.05338522 -0.6342609 1.1862683 -0.22736625 -0.86781585 -0.93432605 0.49800542 0.40284595 1.2012719 -0.7529359 -0.016690385 0.38276652 -1.1076025 0.9326546 -0.37148052 -0.0044879876 0.84216195
663 1.0580702 0.0261805 -0.62403595 0.7009363 0.109557465 -0.7232924 0.15680066 1.2091296 0.14831336 -0.5979391 0.34025612 -0.16498028 -0.37000966 -0.2521141 0.03656118 -0.25402614 -0.39644602 -0.69436425 0.67168623 0.8060627 -1.0885954 0.10169661 -0.81254274 0.5435101 0.18782954 1.2069887 0.6792045 -0.1798408 1.1911764 0.41613197 -0.75950986 1.0983365 -0.5294782 0.6874237 -0.03660336 -0.59662557 -0.619452 -0.04272586 -0.24894866 0.14285359 -0.005955395 -0.14517164 0.0866981 -0.17749804 0.81470686 -0.7610978 -0.11208065 -0.52598536 -0.5779125 -0.8091863 -0.065892175 -0.12646237 -0.619516 0.41457945 1.9942863 0.43374714 1.1882778 -1.4691029 -0.16854402 0.12119626 0.3775115 -0.6710875 0.63802946 -0.2575734
263 1.3038316 0.46935707 0.6906094 0.50231665 0.24996457 0.20488432 0.83661014 0.67692226 0.29249567 -0.49723706 -1.2585119 -0.3823499 -0.60100687 1.6498468 -0.07909163 0.32248703 0.33524072 -0.72958237 0.7086735 0.5250916 -1.0718249 -0.9853561 0.43073985 0.37031418 0.26461992 0.7112562 0.94890064 -0.18015882 0.66360617 -0.13632466 0.35322112 -0.43958974 -0.13677129 0.4147972 0.03863911 -1.3179107 -0.5297313 -0.78008676 -0.2663667 0.59886813 -0.3947256 0.00023113804 1.1405734 -1.337403 0.1541489 0.037626628 0.4604649 -0.45676908 -0.18239433 0.27343455 -0.5154206 -0.992286 -0.6094818 0.5560893 0.019378796 0.43438756 0.29283103 -1.4273584 -0.7322934 0.22355391 0.118416525 -0.44664907 0.77919596 0.91212726
1985 1.1683156 0.5567512 1.14203 0.7237863 -0.81395984 1.1800834 -0.20139092 0.47682962 0.19616053 -0.6170637 -0.9083079 -0.0076866294 -0.2118568 0.22826059 0.5857779 0.2838168 -0.89185286 -1.3638846 1.0472225 -0.4810555 -0.794672 -0.28098103 0.7499983 0.21475379 -1.0783774 0.69870126 0.71127516 0.27766192 -0.120640226 0.3283988 -0.6494246 1.1662879 0.32216373 0.67774856 0.24548322 0.22645026 -0.10632524 -0.6168297 -1.1647598 -0.51125234 -0.4155366 0.75993246 -0.5867581 0.27977723 -0.019770859 0.5768338 -1.3853546 0.0892267 -0.7415279 -0.4397913 -0.42915717 -0.6153725 -1.0523189 0.21386418 -0.47868088 0.48968732 0.093238644 0.0036306833 -0.6193896 -0.79118 0.49387714 0.05820394 -0.10948364 0.3554255
748 0.09581101 0.6309217 0.9996694 0.2622451 -0.24826774 0.15718384 -0.7637299 1.171597 -0.14478002 -0.47402114 0.23081447 0.40706939 -0.842571 -0.08620307 0.07629879 -1.1137645 -0.9972115 -0.59435135 0.052943554 0.4258975 -0.55042994 -0.5846076 -0.20613861 0.14161152 0.2400188 0.7117429 -0.24785121 -1.1210648 0.100939944 0.38235685 -0.21156336 -0.23443714 -0.79217577 0.74113804 -0.3312509 0.19828911 -0.7665199 0.47886422 0.18687826 0.53985476 0.2400085 0.698388 0.7448465 -0.13869493 0.2692903 0.7706574 -0.8187864 0.3330331 -2.2008185 -0.13373323 -0.84754515 0.20931938 -0.28532797 0.36400262 -1.0679101 0.06758007 1.1155496 -0.7691312 0.67918694 0.3046169 -0.37695664 -0.45542493 0.89176685 0.07463064
1066 0.33891156 0.4726548 -0.17246932 0.71083677 -0.17964588 0.0074830945 0.72726 1.4198375 0.792591 0.48212627 0.27830845 -0.064038895 0.05773681 0.4818921 0.29484573 0.0644482 -0.32295048 0.22029048 0.6831053 1.1475371 -0.22829856 -1.1850787 -0.58155113 0.7455603 0.36730346 0.73429084 -1.1762494 -0.627713 0.5067427 1.3414717 -0.572298 0.20680739 -0.20640387 0.19816935 -0.33679536 0.2747254 -0.69372123 -0.491352 -0.5206905 -0.6908105 0.8456635 1.3635883 0.59572583 0.36645395 -0.8735643 -0.17414476 -0.8605643 -0.49752644 -0.17737436 0.2684451 -0.95709944 -0.2968485 -0.339888 1.3529899 1.011241 -0.135635 0.8741121 -0.45511597 -1.0831689 0.45290887 0.05701964 -0.44426006 1.0098072 0.8928232
788 0.80432683 -0.121348746 -0.031201001 0.8161249 -1.0674292 0.40032127 0.7154343 1.2146767 0.05937784 -0.11443821 0.30710676 -0.69374126 0.111174636 1.0318909 -0.09476043 -0.45063835 -0.81867814 -0.060126375 1.165912 -0.058970638 -0.17008065 -0.7871275 0.10436697 0.4427784 -0.15915887 -0.035994817 -0.58833283 -0.08042298 0.5787802 1.0633469 -0.54016286 0.24160296 0.55284524 -0.48856565 0.6354973 -1.149947 0.74845594 0.65978014 0.3710212 0.0068821968 -0.59620273 0.50581676 0.4381364 -0.047103737 -0.55003256 -0.09299973 -0.88360083 0.0120888045 -0.16793244 -1.0444458 -0.5367958 -0.43209857 -0.5201353 0.11464347 0.17861937 0.18240339 -0.14295778 -0.4860947 -0.4281287 -0.13359341 -0.809943 -0.38087374 0.4172362 0.5142879
985 0.85990083 0.44012496 -0.77865195 0.42679563 0.45533532 -0.23495725 0.4355874 0.8449503 -0.34219545 0.09929803 0.23583345 -0.774993 -0.27368772 0.4135206 0.5902839 1.1144902 -0.1837813 -0.5787106 0.4556754 0.15660377 -0.44473425 0.17232756 -0.13995253 0.38623127 0.25798312 1.5555154 -0.4264425 -0.10459006 -0.18770476 1.353576 -0.8517908 -0.39493334 0.48999682 0.9677597 0.26083753 -0.0522319 0.38211834 0.29682788 0.69997 -0.09196205 -0.9840078 1.3943232 0.48074642 -0.029156627 -0.5040185 0.5186079 -0.37785026 -0.8180101 -0.3824938 -0.06308123 -0.37750274 1.0550935 -0.17361668 0.697461 0.19358978 -0.06128632 -0.05832724 0.17871897 -0.22133408 -0.7577987 0.3004884 0.47068918 0.71868646 -0.5715278
522 -0.52414507 0.13742484 -0.29480428 -0.20735337 -0.19781199 -0.67334896 0.48520234 0.9675071 -0.0008764218 -0.2411607 0.04754624 0.5607991 -0.35311002 0.4225918 0.5760916 -0.9900511 -0.32415402 0.21517494 -0.56538534 0.5877229 -0.391489 0.5511157 -0.77349657 0.8326419 0.80765384 0.72632545 0.3721742 0.13630015 0.45832378 1.9800138 -0.4176044 0.2215424 0.21366209 -0.172876 0.890514 -0.7377949 0.08361582 -0.28039747 -0.069988854 -0.7076005 0.022847332 0.95426846 0.1983922 0.5253784 0.08736202 -0.48985288 -0.8694819 0.08180676 -0.87141716 0.6297427 -0.6946205 -0.4549561 -1.5797204 -0.054588355 -0.42461413 -0.64576787 -1.0010549 -0.14663698 0.030630782 -0.49785686 0.1297774 -0.48902628 0.79582995 0.0026844696
681 0.27043712 0.5754491 0.5892536 1.9018841 -0.064742535 0.3391411 0.5577442 1.0147965 -0.08072237 -0.29228112 0.7261643 -0.08774435 1.0599808 1.1540121 0.020440232 0.80394185 -0.3160535 -0.47337306 1.6371732 1.1852201 0.49919933 -0.40698868 -0.4330889 -0.01380688 0.6033305 0.22291394 -0.557634 0.64258057 -0.7633724 1.2487075 -0.3764391 0.30024955 0.26373392 0.13052022 -0.625249 -0.21668932 0.31314173 -0.5824543 0.46135968 -0.30143446 0.14930913 0.13327473 -0.7697676 -0.2989596 0.16638504 1.5717679 -0.08381779 -0.3827171 -0.78490627 -0.37954053 0.29705942 -0.78721255 -0.91262114 1.2806648 -0.017190965 0.10409758 -0.33355242 -0.5959999 -0.88860625 -0.7289062 0.04781958 -0.46643534 0.17890672 0.91501594
1896 0.103621095 1.7028763 0.12961805 1.4326758 -0.00665788 -0.11531982 0.5904218 1.6793277 -0.48590252 0.63286066 0.08118236 0.10897332 0.40985957 1.1340657 -0.11457907 -0.34192553 -0.045939207 0.71148485 -0.10656866 0.82886356 0.08874363 -0.70577294 -0.32478526 0.093132205 -0.011328846 -0.31615454 -0.57424265 -0.0073693306 0.35837778 1.0465815 -1.0909477 1.1169286 0.4504493 -0.010018345 -0.04062014 -0.7654161 -0.17077939 -0.28155607 -0.3284179 -0.9846592 -0.033395126 0.8199401 0.059976127 -0.56989866 -1.3027732 -0.4287739 -0.01690146 0.63116497 0.26703656 -0.65760225 0.6952676 -0.9336362 -0.8370766 0.866114 1.0203149 0.64959145 1.4211615 -0.5416718 -0.27680442 -0.23530492 0.08280601 -0.17806214 0.87858796 1.1126796
2022 0.80684435 0.6635737 0.46601325 0.18341331 -0.4147443 -0.03435079 0.65701735 1.0378646 -0.21104613 0.021425502 1.3475791 0.21602106 -0.19780274 0.5375385 0.2622509 0.2521501 -0.68057966 0.6086777 0.35681775 1.5621706 -0.051025197 -0.95449066 -1.1369616 -0.4614718 0.8648932 0.12481949 -0.5283945 -0.08719835 -0.24731733 0.71847355 -1.4164404 -0.2117201 -0.40193424 -0.8629034 0.06646522 0.3178603 -0.5153003 -0.61688274 -0.17057453 -0.23988709 0.8980866 1.5784322 -0.6046412 0.31333718 -0.20824488 1.0894672 0.005406648 0.1373006 -1.255235 0.47733703 -0.7214602 -0.961123 -0.45322677 1.036258 -0.063600756 0.07776841 1.5221093 0.7707675 -1.1113571 -0.13505214 -0.15456934 -1.3645425 0.36688688 0.7149
2137 -0.6574759 0.52588505 0.8274772 1.5327716 0.45866078 -0.1535854 1.6612251 1.5762982 -0.3508048 -0.8073436 0.73712265 0.4824598 0.677235 1.176965 0.033558045 0.42530286 0.08181477 -0.37743074 0.8915941 -0.024503822 0.2859995 -0.95054406 -0.16345122 -0.29700285 0.7768245 -0.91686577 -0.7057687 0.128442 -0.18490201 0.47023764 0.0784357 0.8430265 0.16534305 -0.2911439 0.09085864 0.60866934 0.25636816 -1.5209508 0.16828285 -0.22730808 -0.49336547 0.7285961 0.11799828 -0.783344 -0.42019936 0.20092295 -0.95390004 0.23169732 -0.6530892 0.61967725 0.33627158 -0.9077697 -0.4618162 0.075065054 -0.20250775 -0.36803487 1.3997118 -0.028807232 -0.3902718 -0.56940234 -0.3989848 -0.584345 1.6311411 1.237737
2651 0.34421718 0.44073352 -0.2935336 -0.14553499 0.77464557 -0.1143304 0.42939678 1.5584089 -0.87501246 -0.20914027 2.0550787 0.36388215 0.5000809 0.55205274 -0.24092847 0.27773768 -0.7335599 0.44184756 0.5061058 0.77923954 0.010019192 -0.9544155 -0.08154283 0.77483094 -0.12016467 -0.7516851 -0.28837046 0.34967336 -0.71590954 0.3789523 -0.4573189 -0.13384236 0.04362326 -0.6619639 0.32589105 0.087691754 0.6542827 -1.672428 -0.3770668 -1.1311023 0.6794008 1.3710246 0.20935786 -0.06979918 -0.9902414 0.20117572 -0.06890928 -0.9676059 -1.2276919 0.5274802 0.35667038 -0.40825176 -1.0509889 0.31659713 -0.05279735 0.55531365 0.047720727 0.87410223 -0.20121889 -0.4660523 0.72296065 -0.1865223 -0.040588543 0.75297403
1935 -1.0864004 0.8783252 0.93411744 0.79119086 -0.6594922 0.7040321 0.28340912 1.5138606 0.059571326 -0.057764616 0.5354302 0.46051672 0.2357458 0.7777773 1.2356492 -0.4566171 -0.16364521 -0.18183818 0.39793506 1.1967444 -0.2762981 -0.9388512 -0.2781875 0.9574025 1.0057697 0.57119745 0.7187474 -0.35091946 0.33895022 0.5557478 -0.4081414 0.30355906 0.06694902 -0.5553018 -0.71768594 0.03199863 -0.2138072 0.07652036 -0.54267603 -0.7720086 -0.4530523 0.8373678 -0.066970415 -0.9090537 -1.369071 -0.037792835 -0.3082281 0.5345775 -1.3554583 0.979425 -0.28262332 -1.4635717 -0.47597805 0.89766794 0.05547753 0.2736053 1.0413474 0.6305764 -0.12197977 -0.61189216 -0.3182218 -0.41394642 0.030573914 0.6228258
1414 -0.59312373 0.562544 0.16632742 1.3296227 0.027920067 0.10826198 0.6202872 1.442688 0.8852099 0.09320817 -0.19316569 0.7418893 0.6142928 0.9676931 1.0854576 -0.4313467 0.25037062 -0.67580533 0.6244473 0.6378895 -0.7969408 -0.04132164 -0.15010485 0.39671966 0.3327816 -0.19176887 -0.44338006 -0.32957968 -0.35844034 0.820168 0.45868763 0.032977484 0.4821768 -0.32459617 -0.45142123 -0.09334722 -0.19867922 -0.6984729 0.832741 -0.27170098 -0.18895973 0.8306976 -0.08494555 0.046842195 0.17055398 1.5281461 -1.2869555 -0.7323399 -0.9391286 -0.8459982 -0.07522677 -0.33507693 -1.5523392 1.1187582 -0.78188235 -0.17638415 0.3675679 -1.1765485 -0.7926627 0.1804737 0.18358552 -1.1529566 0.22056463 0.5799107
1678 -0.12321585 0.8691442 -0.20518535 0.6031536 0.21000136 0.24700534 0.5917705 1.1744077 0.19384739 -0.16394866 1.3565089 1.0064806 0.29181558 1.267965 0.40284705 0.52938366 -0.5963912 -0.13020429 1.0324616 1.685009 -0.10981787 -0.24410775 -0.1390981 -0.38157782 -0.3220998 -0.8432436 -0.08025185 0.23858455 -0.70572895 0.8206336 -0.3077007 0.9069739 -0.34663725 -0.029486012 -0.48640224 -0.014833264 -0.33653897 0.42321074 -0.36038768 -1.0431663 0.26402017 1.246058 0.5305652 0.5409801 -0.38649216 1.9145277 -0.76018 -0.68994546 -1.1682643 -0.8077139 -0.04421476 -1.6036079 -1.2914666 0.25317886 0.021763558 -0.32046536 0.2572439 -0.40467983 -0.6452818 0.45005846 -0.3748724 -0.31831524 0.06671678 0.35019973
1223 0.082621604 -0.05800443 0.626606 0.5659351 0.14684317 -0.12783732 1.3773032 1.385465 0.31232366 -0.05915035 0.82545644 0.2913946 0.50085485 0.41097602 0.121994354 0.7438713 0.05852246 -0.88619953 0.23008212 0.10608225 -0.21648486 -0.3398012 -0.60276914 0.5901404 0.22946988 0.3538533 -0.71364343 0.18875535 -0.25333297 0.6053015 -0.7569622 1.0169106 -0.17393447 0.39317825 0.09718244 0.31569368 -0.6779344 -0.9927099 0.01913842 -0.29138783 -0.5187653 1.8469541 -0.08763185 0.74228466 -0.6786497 0.90002793 -1.2992202 0.3716646 -1.1241839 0.19325645 0.26470026 -0.14587419 -0.052871544 0.74580866 -0.20545061 -0.59356976 2.16271 -0.28973264 -0.40734506 -0.85719466 0.22721553 -0.5642735 0.8495665 0.22670087
678 -0.21952766 -0.15126953 0.15186806 1.0095692 0.14187178 0.44979897 0.27960765 1.1447026 0.39541122 0.021435088 0.96981555 1.1308494 -0.9492679 0.5644502 1.0265112 -0.2508073 0.015754167 -0.37566954 1.0600439 1.0880442 -0.68499374 -1.0024822 -1.1701361 -0.34772918 0.8411329 -1.2334692 -0.35303488 0.2223241 -0.11486013 0.94094336 -0.2888522 0.47029412 -0.68239355 -0.1776714 -0.043044213 0.36792305 -1.0488654 -0.5569592 -0.5504388 -0.8778791 0.17453538 0.8295354 0.31413493 0.4564103 -0.44516551 0.56298774 -0.72480214 0.2978973 -1.5698044 0.44696537 -0.64844847 -0.40947804 -0.027205262 0.6522589 0.14908259 -0.38545024 2.0128884 0.121726766 -0.438066 -0.50420463 -0.51607275 0.08686787 0.50007683 0.7101382
2996 -0.12196916 0.8021663 0.13897118 1.0466813 0.4010914 1.09354 0.37585577 1.4708172 0.61723477 0.3580519 0.711873 0.5308315 0.17706876 0.8854044 0.44396633 0.1995097 -0.051264577 -0.3783021 0.3764571 1.0073837 0.07085668 -0.37388518 0.7493152 0.95532244 0.94052124 -0.37286988 -1.09366 0.16995116 -1.0298333 0.8945926 -0.13139254 0.4016908 -0.23743281 0.30360222 0.24123478 -0.079180546 -0.1279311 -0.718403 -0.8625103 -0.7862227 0.29830676 0.7373446 0.8224684 -0.01483447 -0.49679038 0.5753809 -0.8017933 -0.12698942 -0.8286554 -0.5674437 0.0647153 -0.60207963 0.32330182 0.7256868 0.9510357 -0.2248837 1.8311038 0.4058041 -0.60251164 0.3172687 -0.5406363 0.12778164 1.4119195 0.82812786
1820 0.55569744 -0.20606816 -1.3238118 0.5489 0.39806232 -0.5549904 -0.21462308 0.3045167 0.1384816 -0.56675434 0.732134 0.9373095 -0.09479614 0.055849977 0.5629877 0.683044 -0.76171577 0.45943093 1.4862225 1.6873859 0.31889024 -0.50482607 -0.81551105 0.35130015 0.4143103 -0.96564484 0.26795018 0.5377954 -0.36277226 0.40741253 -0.4111263 -0.17536911 -0.018327769 0.45414433 0.32066515 -0.86547625 -0.81874037 -0.07303494 -0.01748858 -0.8743059 -0.13378425 0.6503166 1.1803178 -0.38080865 -1.0350354 0.8286742 -0.26898915 -1.1092367 -0.8275602 -0.20237215 0.9093282 -0.8341909 -1.1780777 1.0355003 -0.16446646 0.25520286 -0.47264105 -0.5429089 -0.5587599 0.012107847 0.22271547 -1.1730735 0.12997401 1.2225783
3290 -0.12870629 0.5451986 -0.22206417 -0.08233483 -0.27533585 0.7607428 0.24077283 0.8608682 -0.082471736 0.08452218 1.8044688 0.76054615 -0.5068037 0.013398344 0.6067487 0.81130683 -0.41769642 -0.7905323 1.0046571 0.7962766 -0.27740207 0.28094417 -0.58870506 0.64494646 1.273985 0.17764379 -1.0596007 0.5450247 0.0028049212 0.9470777 -0.40358752 0.69498795 0.3817004 0.162028 -0.45756936 0.048227645 -0.16765605 -1.1117387 -0.121716276 -1.2442248 -0.2974441 0.70992154 0.751004 0.15437458 -0.47499382 0.98184377 -0.5170874 -0.46137372 -0.97973573 0.50576 0.32519075 -1.1032478 1.1685362 1.5176445 -0.4945554 0.035998996 1.0181725 0.7821967 -0.17777665 -0.9530075 0.029918028 -0.25880083 1.0017953 0.3238547
2169 0.6032389 0.65377295 0.4189492 0.79577816 -0.18813518 -0.049040996 -0.22987132 0.21747425 0.15951245 0.13802189 1.4577348 0.33187824 0.120111994 1.1303037 0.24153101 0.30770898 -0.30201572 -0.5929917 0.68893653 0.9219025 -0.24429537 -0.5790404 -0.03447796 0.21722254 1.2231016 -0.07522616 -0.73790777 0.6084747 0.46888965 1.4619715 -0.9809679 0.056972224 -0.078871004 -0.3601756 0.3152171 -0.5118954 -0.15262204 -1.5860987 -0.2738608 -0.6821128 -0.08799266 -0.63165444 -0.09996258 -0.19664899 -1.0925168 0.8698839 0.2720012 -0.3090517 -0.4652506 -0.3001812 -0.3236893 -0.88852924 0.18390974 0.49213555 0.7213893 -0.79825497 1.1488922 0.27495408 -1.3606472 -0.24797608 -0.06533657 -0.18329492 1.7226336 0.69711334
2081 0.9266135 -0.41173592 -0.25696632 1.1025121 -0.18899564 -0.509599 -0.17671506 1.3006867 0.24548917 0.55479693 -0.1733801 1.1825621 -0.6728339 0.16982464 0.7142351 -0.66369206 -0.7592714 -0.30160093 -0.8063433 0.8336516 -0.18753877 -0.10506683 0.20685196 -0.072908334 0.038883567 -0.006276043 0.14190508 0.08313051 -0.19741476 1.5076023 -0.01625018 -0.18084796 0.34558067 -0.64962804 -0.818448 -0.5820403 0.8034658 -0.3054246 0.71073663 -1.7335359 -0.5144387 0.6253948 0.79606205 0.58749074 -0.742819 -0.25575083 0.24378206 -0.037982702 -0.93763953 0.49880183 0.3859697 -0.29459646 -1.139188 0.32337725 0.25602353 0.54248077 0.05083116 0.11064636 -0.47258437 -0.25993815 -0.3385535 0.64674276 0.3033521 0.044122238
3124 0.11334362 0.48262554 0.44272324 0.9050438 0.032655034 -0.90465236 0.08605933 -0.32868242 -0.2132019 -1.071349 -0.039493844 -0.15682603 0.13574564 1.1572667 0.5018065 -0.42489105 -0.15016016 -1.1338335 -0.6147278 0.2774899 -0.011887347 -1.2628262 0.45543674 0.102459416 0.46526766 -0.36426923 -0.6109409 0.4567902 0.029566813 0.55888057 -0.34097943 0.643532 0.51734453 -0.6764369 -0.31956333 -0.40193188 0.56038207 -0.42744216 1.141967 0.43796697 -1.2855434 0.9255974 0.24338596 -0.16712207 -1.126673 0.47450256 -0.084489495 0.7144232 -0.24877991 0.100353025 -0.19600014 0.41604832 -1.3004073 0.37988696 0.32149175 -0.3519332 1.1590996 0.038562007 0.362402 -0.25643072 -0.17345658 -0.6116579 1.1747437 0.049632538
1517 0.9524249 0.65450203 0.17243178 1.091535 0.6980102 -0.7808998 0.04687013 0.43837473 -0.5040695 -0.1575708 -0.8154744 0.34118304 -0.1877681 -0.18076755 0.5587481 0.09213779 -0.5903905 -0.4085662 0.6060081 0.9564063 0.67531896 -1.5024866 0.06560311 0.2937443 1.0900748 -0.8771179 -0.1695598 -0.018347917 -1.3843887 -0.92082214 0.12160725 0.18490408 -0.5024771 0.040788252 -0.121499285 -0.4902396 0.71919847 -0.9086697 0.6880543 -0.5730633 -0.68986386 1.757579 0.07995565 -0.11735239 -0.033325143 0.14731853 -0.82172364 -0.041049954 -1.5580531 0.01995648 -0.088509776 -0.19885351 -1.2620552 1.2926075 0.033173513 0.80047286 -0.19451751 0.89262766 -0.71339947 -0.99329567 0.60287416 -0.6254494 -0.47604352 0.26928344
1638 -0.22084162 0.29218295 1.4541804 0.38993034 0.7421504 0.0012130971 0.5294557 0.20972332 0.12858765 -0.43171638 0.5214745 -0.07160584 0.6918407 0.87013644 -0.043741375 1.2822092 -0.75616723 -0.61182934 1.7055036 -0.00019026373 -0.056400653 0.5020777 -0.14529553 -0.101353444 -0.07291717 1.1279614 0.33240137 0.4225594 -0.308369 0.7811527 -1.1585181 -0.19108996 0.13053735 0.043078918 -0.16776407 -0.56627166 -0.5836471 -0.19296646 -0.38835266 0.106336616 0.113990076 0.18694173 0.44845298 -0.5116929 0.72829485 0.88655835 -0.29808435 0.6331529 -1.0103673 0.65034795 0.037418813 -1.8841115 -1.1329054 0.7512284 -0.27609405 -0.01117494 1.4190542 0.4589235 -0.111424424 -0.15529177 0.3561128 -0.43641925 0.28398484 0.9161976
1446 -0.648534 0.9144643 0.17436601 -0.34779945 1.1961935 -1.610113 0.58941025 -0.22408469 -0.96376365 0.25796086 0.9642034 0.0908835 -0.0053923456 0.74257374 0.8745908 -0.45492852 -0.19406953 -0.9056105 0.5684742 0.12454826 -0.33413482 -0.94958854 0.32088703 0.21518779 -0.15893975 -1.4945127 -0.30641934 0.24906787 -0.5437967 0.990993 0.26835024 0.40340382 -1.1522226 -0.5221016 -0.31643277 -1.0375524 -0.5387635 -0.6250378 -0.43828234 0.008383859 -0.17082521 1.1530807 0.77870166 0.38607424 -0.38173017 1.0653136 -0.2118394 -0.31671762 -1.58598 -0.24710411 -1.1702979 -2.0437126 -1.2165436 0.13337035 0.091342136 0.018205013 0.09004617 0.041084092 0.2970022 0.19298936 1.072747 -0.67443633 0.3187724 0.30408671
2212 0.37387246 1.1137072 0.16109517 0.47829798 1.2506986 -0.25707397 0.008085434 2.338881 0.4037686 -0.24398485 0.50746465 0.40445828 0.4700653 1.4153144 -0.06385143 -0.21642272 0.35913256 -0.9446561 1.8112017 1.4705557 -0.63852847 -0.5217426 0.3494262 1.1759535 -0.47988012 0.7865378 -0.7708619 0.51321536 -0.47042271 0.009924693 -0.084154 0.5785081 0.08701641 0.80250263 -0.47652483 -0.031288378 0.44023064 -1.6351303 -0.19354102 -0.35171112 0.3688426 1.0692594 0.29374984 -0.73150676 0.29188678 -0.33823946 -0.4240294 -0.73461056 -0.37484723 0.35607454 0.0402789 -0.37497175 0.030659946 0.6353206 0.56621253 0.50356025 0.72389174 -0.51011306 0.26727596 0.5174411 0.43531364 0.58428866 0.19043985 -0.30077106
2052 0.13996999 -0.14399321 -0.35434514 0.5529642 1.061319 0.6978922 1.1891127 0.78516054 -0.7948174 -0.012419889 0.5431022 1.41909 -0.8950187 0.40840062 0.9879468 0.5579367 -0.58353627 -0.65200645 1.4968922 1.002212 -1.4923124 0.004535557 -0.68439895 -0.40780792 0.33536708 -0.42867726 -0.46529073 -0.5495978 -0.99954104 -0.5906028 0.2892936 -0.14339496 1.2409705 -1.5476295 0.09441796 -0.2019986 0.6154614 -1.3400023 0.055346325 -0.4379763 0.18713099 0.5103887 0.68409455 -0.6046566 0.53400713 0.2440241 -0.42492393 0.3766376 -0.12026204 -0.11482064 0.098130584 -1.3279761 -0.3651232 0.7945129 0.23151997 -0.2868552 0.91332215 -0.28809452 -0.18503822 0.8019166 0.7389917 -1.6015798 0.5378423 0.10716658
1920 0.046979085 0.7395184 0.3992112 0.25689483 0.5249994 -0.5949091 -0.20408556 1.4546016 -0.707399 -0.48066896 0.74596894 0.49769714 -0.55278605 0.14927433 -0.012580451 0.8149899 0.2757145 0.43773898 1.1270254 0.40584683 0.012371871 -0.62057775 0.0014781558 -0.3313472 1.1077251 0.31012067 -0.38362136 0.39968586 -0.32648763 -0.36487737 0.7308992 -0.13658316 -0.26225913 -0.9114725 0.12704928 -0.6919464 1.0457311 -1.3290927 -1.3295628 -0.9299084 -0.053878497 0.935119 -0.2539178 -0.5986797 -0.090524495 -0.9684907 -0.14769988 -0.50381935 -0.53980446 0.4423631 -0.31129435 -0.98491764 0.416939 0.4869118 0.3875702 0.2722995 1.1222429 0.6704985 -0.27650753 -1.421233 0.6384817 1.0223721 1.2525506 0.67126465
1068 0.12612104 1.1214424 0.72490704 0.6582469 -0.34801507 -0.9817905 0.84003145 0.2429737 -0.67286503 0.9205331 0.85378796 0.38882577 -0.4891782 0.814664 0.7217523 -0.5136798 -0.101602264 -1.0848147 0.045548964 0.5676662 -0.93822783 -1.2669382 0.03778384 0.6185885 0.9486584 0.035977926 0.18592605 0.06244262 -0.3706876 0.7387637 -1.1383805 1.0610926 -0.84450716 0.15001707 -0.27624732 0.008851765 -0.33261588 -0.7557634 0.272469 -0.5666019 0.19799323 0.3303061 -0.14447817 -0.4330564 -0.3315308 0.36633608 -0.8861865 0.17191197 -1.7793456 0.50404865 -0.33800313 -0.473289 -0.58593255 1.091578 -0.18432027 -0.121950135 0.8836563 0.8424231 -0.66967785 -1.3587347 0.21117789 -0.23398258 0.04605785 -0.04925772
1379 -0.17518558 0.6417618 -0.117351755 0.19407946 0.42116243 -0.6319104 1.5141071 1.0976177 0.43261677 0.55582637 0.23671164 1.3822054 -0.32822946 0.24397756 1.0721936 0.76264924 -0.16149516 -0.22552793 0.39403805 1.2553079 0.107728 -1.369654 -0.08507479 0.30235073 1.0106467 -0.8549595 0.15625526 -0.07551858 -0.42204988 0.6334053 -0.9940251 0.050679196 -0.5348899 0.34675202 -0.28407976 0.11240087 -0.20326446 -0.72320634 -0.055921286 -0.76845217 -0.20648016 1.5683786 0.028147027 -0.21623525 -0.8361197 -0.38941655 -0.9993659 0.46569225 -1.0959309 0.5664395 -0.15324359 -0.6919765 -0.031236935 1.30747 0.59437543 0.09294546 1.5270624 0.82154906 -0.09377485 -0.5624383 0.36351672 -0.8579694 0.7580589 0.07638797
2135 0.6147914 0.27005228 0.6349716 0.07148971 0.20633714 0.33515602 1.2784156 1.0850899 0.23785093 -0.15202321 -0.21871471 -0.16919583 -0.2144464 -0.3133565 -0.24663498 0.56974643 -0.2074508 -0.81775266 0.26650274 -0.066922754 -0.5491739 -0.4735612 0.4119145 0.08720121 0.0934038 0.94698 0.7891535 0.33519515 -0.43436742 0.6987169 -0.29800102 -0.33821088 -0.05421321 0.94129634 -0.3741312 0.124100216 0.13227381 -1.2214069 -1.318286 -0.35448545 -0.09350339 0.6730119 0.20779811 1.0071087 -0.02861601 -0.7422196 -0.8394922 0.6532565 -1.5320637 -0.083588675 -1.000375 0.09265175 -0.93902385 0.22144794 0.67544806 0.12111578 1.0910481 0.5495831 0.31593874 -0.37034056 0.571937 -0.58815044 -0.4753325 0.6151318
3052 0.61239266 0.70109046 0.6668958 0.23643932 1.1771317 -0.41809794 0.48018122 0.30261016 -0.0012192336 -0.37127253 0.3948767 -0.14035621 -0.7458412 0.36462468 0.3506093 0.16103935 -0.13292588 -1.0071645 0.90115964 0.008266639 -0.92635286 0.045105945 0.049410425 1.1341522 1.0443182 1.4138558 -0.09026813 -0.29996684 0.47609448 0.68109244 -0.51413375 0.34525383 -0.22474301 1.1623772 0.41200802 -0.6955853 -0.07250008 -1.2024324 -0.48840237 0.99805915 -1.2034312 0.4249655 0.25464144 -0.6152387 0.33132902 -1.1229837 -0.84385383 0.7989941 -1.2132678 0.37877187 -0.3685836 0.19844282 -0.047479108 -0.15177885 0.5193904 -0.18115002 0.8117354 0.26485783 0.45784235 -1.5956347 0.15214686 -0.10487686 0.93257457 0.04479375
865 0.123806976 0.580827 0.64679146 1.1730942 -0.15850489 0.55638134 -0.25043413 0.03408493 -1.1096252 -0.11411797 -0.17994517 -0.1303758 -0.86840147 0.11463507 1.0852067 -0.6278741 -0.2699388 -0.7095784 1.6444185 0.65202105 -1.4558592 0.78818244 -0.2338997 0.2087954 1.0537165 0.12692903 0.6271156 -0.6163802 -0.6994734 0.07868743 0.043338094 0.33981067 -0.4306827 0.1746921 -0.8306812 -1.2080584 0.61103314 -0.80051893 -0.4767283 -0.47718182 -0.92733896 -0.15832612 0.9569154 -0.85286 0.6945615 0.19950806 -1.0213654 0.06415607 -1.2316947 0.46781126 -0.24854127 -1.5325221 0.10172923 0.66137 -0.3091756 0.26039493 0.7922893 -0.035858687 -0.16879387 -0.561886 -0.51970726 0.28586563 0.46583658 0.22572456
1772 -0.13002272 1.5110008 0.42871287 0.32207054 0.53612983 -0.5941696 -0.24186602 0.4601363 -0.5243574 0.034048107 0.76991475 1.9350632 -0.23820323 0.71203136 0.79046285 -0.6947786 0.04268581 -0.39666757 0.4960669 0.805562 -0.44612107 -0.026472157 -0.75184697 -0.23548397 0.5687527 -0.5222665 0.029909898 0.15772343 0.34751648 0.020183664 -0.6911259 0.19336912 -0.04677197 -0.36694226 0.25200948 -0.47578165 -0.31478715 -1.4409668 0.25060698 -0.93466544 -0.33876124 1.1081538 0.769008 -0.92050457 -0.30796927 0.038498998 -1.1070726 0.29261053 -1.0586237 0.884069 0.3421099 -1.1678041 -0.08139012 0.58209217 -1.1914672 0.040229525 1.112843 0.5559185 -0.72422075 -0.2625871 -0.20433822 0.33725032 1.0449104 0.6309815
1374 -0.30602437 0.2573719 -0.14609447 -0.31420636 -0.49141538 -0.70662534 0.4502447 1.1574864 -0.3101409 -0.43283075 0.18454637 0.4262205 -0.09419496 0.42666417 0.46088025 -1.6920819 -0.15997651 -0.01831499 -1.0324962 0.20472886 -0.43598533 0.631935 -0.07413641 0.6005371 0.9703287 0.9169763 0.7563454 0.029679997 0.6757511 2.051628 -0.5590261 0.15757625 0.5262768 -0.19930017 0.10684751 -0.6238229 -0.084006846 0.2486783 -0.1811886 -0.38938612 -0.24043609 1.016424 0.5761016 0.092251875 -0.17737132 -0.53548664 -1.025658 0.017553879 -1.0029943 1.058106 -0.6140995 -0.2323774 -1.3793277 0.057959836 -0.6910374 -0.10226042 -0.88843346 -0.040211543 -0.13180901 -0.6779453 -0.067333214 -0.2578795 1.1823728 0.29966465
1615 0.75418854 1.6346622 0.58389986 -0.32371235 -0.5555534 -0.80572176 0.8587035 1.4502901 0.10618262 0.38561192 0.24865912 0.43005028 0.037688613 0.8698632 1.286005 0.49479887 -0.6295694 0.38424405 -0.007250827 1.5205467 0.13790037 -1.046298 0.41918337 0.30983597 0.5599185 0.13936959 0.30113202 -0.1306852 -0.5735121 -0.26441646 0.19062258 0.7518951 0.6203062 -0.45806634 -0.14833792 -0.7975794 0.115478955 0.17922391 0.37458247 -1.0333333 -0.12778276 1.0190732 0.69972783 -1.0615288 -0.55347794 -0.19609055 -0.32557067 -0.22728896 -0.5351271 -0.47962824 -1.1175342 -0.8533029 -1.2527246 0.41055334 0.55578154 0.48745242 0.34893095 -0.12518439 -0.94230855 -0.6016488 -0.6214201 0.45797014 0.19586779 -0.009009162
483 0.44590256 1.2550797 -0.7158658 -0.18417096 -0.40403378 -0.18814744 -0.13511033 0.3517862 -0.11887134 0.18486096 1.1017007 1.5793661 0.01770942 0.13322328 0.40349385 -0.97710586 0.03066763 -0.34746155 0.53717303 0.5739819 0.3587374 -0.07506649 0.4634943 0.6825022 -0.047015954 -0.29847208 -0.119805954 0.22096339 -0.2487759 1.0668489 -0.95802677 -0.6733573 0.2852135 0.12662734 1.2617776 -0.5041511 0.47297645 0.53699476 0.03093053 0.37022164 -0.19781873 1.4799953 0.7463851 -1.1182129 -0.5337335 0.14885241 -0.43336287 -0.05818201 -1.0484086 -1.1656438 -0.05267968 0.6168251 -0.7334727 -0.124273755 0.74310577 0.02041628 1.8144476 -0.15237235 0.2880085 0.74326336 -0.62229747 0.2870463 1.1489046 0.18915607
389 0.7036662 0.8166575 0.0466579 0.41327277 0.07199106 -0.72487587 0.17591964 1.4277952 -0.12290544 0.8383481 2.4193757 0.24736284 0.07157672 0.85096025 0.84935355 -1.211005 0.17033696 -0.22796188 -0.114772804 1.36234 -0.39668682 -0.45191503 -0.50292414 0.034396928 0.52053773 0.015348011 -0.5226953 -0.22050759 -0.28049117 0.66226184 -0.6010364 0.46915656 0.17539221 -1.0363845 0.58189857 -0.55431515 -0.30895284 -1.0494376 -0.04877697 -0.25974295 0.16466723 0.44463423 0.041654646 0.269902 -0.87810886 -0.06739044 -0.6110329 -0.15609509 -0.87800103 0.05964872 0.55370665 0.30200905 -1.2234988 0.74927944 -1.075966 0.18626331 1.3592125 -0.06991877 -0.4320449 0.08598809 -0.42805696 0.11851074 0.9406084 0.8665709
1972 0.516751 0.36182824 0.06467011 0.6116197 -1.0357804 0.41978696 0.63363266 0.31753722 -0.14843147 0.13373105 -0.09505979 0.5100834 0.15464665 1.2416368 0.39454624 -0.41911033 0.576607 -1.1562375 0.7607983 0.84631276 -0.75282204 0.10906704 0.599964 0.9857631 0.3948626 1.1835177 -0.019524753 -0.93201923 -0.6881977 0.5982208 -1.4417872 -0.5008348 0.42604563 -0.11182919 -0.4300387 -1.5227945 0.2448071 -0.97941375 -0.37431413 0.68626237 -0.6595363 0.7224903 -0.008797521 -1.5968244 0.014871768 -0.46272555 -0.6315688 0.8064008 -0.12721327 -0.4698951 -0.2511917 -0.3359918 0.4629643 1.24563 0.8102452 0.26084542 1.8348864 -0.62562567 -0.031905487 0.02458109 0.36774927 -1.0581683 1.4081085 0.667247
1168 0.53789586 0.85013753 -0.7312564 -1.1205986 -0.20015797 -0.86222225 0.5964435 1.6606255 -0.2596286 -0.0085035255 -0.060480863 1.1540596 -0.3844072 0.5097505 -0.24534012 0.49145412 0.021624286 0.15904593 1.4163858 0.7151046 0.4565347 -0.18681054 0.29071674 -0.33235687 0.27636904 -0.9293484 -0.24781655 0.22056696 -0.4087291 0.5483617 0.40373525 -0.37343916 1.1535918 -0.11384904 0.10343104 -1.8674945 1.0151819 -0.12185018 -0.5946468 -0.20019405 -0.37562203 1.098762 0.053460896 -1.0803823 -0.2321482 -0.71497285 0.039509386 0.0026128269 -0.15776603 -0.54396725 -0.8909313 -1.1190505 -0.19792874 0.970109 0.11370562 0.515267 0.60013264 0.14744677 1.5228732 -0.6142461 0.9256286 -0.5504393 0.096706 0.36112857
1725 1.1682327 0.56844443 0.37473768 0.74034554 -0.14278498 -0.6528637 1.4664347 1.0634927 -0.19169472 0.3723975 0.2664124 0.35691896 0.30536985 0.05047913 0.23064725 0.041598473 -0.2139176 -0.38771695 1.1948681 1.310995 -0.040588476 -0.6399974 -0.7102544 -0.49420673 0.309048 -0.6987754 -0.18183033 0.13310146 -0.9624595 0.28523737 -0.2455808 0.18452269 1.071437 0.09252387 0.34216395 -0.3598882 0.38242108 0.53821146 1.0478944 0.012107451 -0.67802274 0.96391284 -0.1296079 -0.09117701 -0.62089 0.22547054 -0.780471 0.60647863 -0.25524887 -0.5845384 0.16319649 1.0465217 -1.2443777 1.5450262 -0.37396803 -0.03711638 1.1034974 -0.4312077 0.10638624 0.33182403 0.69223386 -1.4102304 -0.59246707 1.1920643
2985 0.5366016 1.1506984 0.5005276 0.60120773 0.43189046 -0.06371383 1.2582238 0.39511356 -0.1486302 -0.016085643 0.7704067 0.7407974 -0.32735536 0.9063733 0.6702025 -0.75869125 0.32836425 -1.1946677 0.9962443 1.1116291 0.3720984 -0.7090301 -0.06932478 1.7284302 0.61437356 -0.8113688 -0.13903844 -0.25546044 -1.2076752 0.3873653 -0.55339235 0.54550356 -0.4838724 0.021318207 0.1003613 -0.86863345 0.026916679 -0.28782827 0.14875549 -0.82931095 -0.7843037 0.7336869 0.7524284 -0.21439993 0.20200841 -0.10018979 -1.2993386 0.73886764 -0.5293496 0.23691757 -0.044630017 -1.5980325 -0.37637076 0.9528604 0.08436664 -0.04056808 -1.0383978 0.04599081 -0.24501804 0.2054712 0.44445318 -0.38989478 -0.027132086 0.655353
769 1.2837752 0.72625786 0.6332643 0.6052421 -0.33796814 -0.14913288 1.007436 0.4761324 0.3305838 -0.36666 -1.1549722 0.25917554 -0.8862799 1.60189 0.20547594 0.45610708 0.2326905 -0.6591869 0.9345857 0.42055938 -0.4606383 -0.6710739 0.61412644 0.09064245 0.4495931 0.7422745 0.67429966 -0.3729903 0.68688744 -0.02399402 0.16022976 -0.35898122 -0.062414225 0.21923587 0.06862082 -1.2787863 -0.41310918 -0.9776034 -0.36896226 0.30583644 -0.65268385 0.22340482 0.96492076 -1.2307156 0.36244014 0.22122647 0.041385494 -0.78101635 -0.0011276857 0.3887719 -0.7596942 -0.7732857 -0.5784351 0.5953188 -0.34307677 0.16882338 0.49799877 -1.4498557 -1.1766438 0.5506545 0.36159575 -0.36969757 0.3480623 1.0227038
1866 0.1487254 0.47501808 -0.04750908 0.119600095 -0.5757804 -1.1701071 -0.36150253 0.5007614 -0.2027198 0.5872858 0.46128702 0.60979635 -0.12802012 1.6747261 -0.6923977 -0.27578098 0.37529805 -2.0147126 1.2456009 0.5799643 0.23177262 -0.56760705 0.0916811 -0.68184626 0.19465515 0.6281843 0.51461804 0.17334443 0.5684848 1.5159369 -0.23944277 -0.18111277 -0.116532475 0.7206088 0.4009275 -0.14139037 -0.83238673 -0.47775808 -0.2766432 0.4453021 -0.30193195 -1.003329 1.1183994 -0.5587318 -0.5113325 0.34592736 -0.6964397 -0.078412555 -2.0317743 0.84415674 0.06844112 -0.3182918 -0.7847427 0.9719024 0.19226545 -0.14131375 0.40339464 0.2536417 0.59876686 0.61775523 -0.13119695 0.3819652 0.6620252 0.09254941
1637 -0.15725382 0.41040322 1.2453214 0.3931949 0.9446907 -0.002100318 0.54668915 -0.074055254 -0.109451234 -0.6346403 0.47678614 0.019645236 0.9561227 0.98514324 -0.2349514 0.9800984 -0.54463613 -0.8049909 1.5248258 -0.11783413 0.120854594 0.508609 0.025564732 -0.2027373 -0.0358212 1.0500399 0.7429287 0.60314786 -0.5913666 0.45880583 -0.9959692 -0.28526306 0.44174027 -0.21578069 -0.06302563 -0.6601396 -0.17969278 -0.2514507 -0.61678046 0.61806077 -0.13628383 0.38540268 0.7867463 -0.6213296 0.87098676 0.6221104 -0.17583238 1.0681354 -1.0947523 0.6753943 0.38659933 -1.3112587 -1.5694246 0.4995922 -0.0151617015 -0.14915372 1.2646203 0.43923265 -0.0039591207 -0.2023235 0.3042653 -0.5103075 0.20258337 1.0097404
3085 0.4451777 -0.02099454 0.49621668 0.7767244 0.7373234 0.0434223 0.9218507 1.1494888 -0.17312863 0.6244269 -0.25657076 1.7995117 -0.89195883 1.138908 -0.84634143 -0.5582924 -0.9598073 0.20357591 1.0729667 1.2321543 -0.87028146 0.7676644 0.49530095 -0.2582055 1.0977653 0.116773225 -0.20044805 0.32006982 -0.9653367 0.19134131 0.0056203427 0.40116528 0.9591635 0.35322356 -0.2235545 0.3244562 -0.290461 -0.17901622 0.17879689 0.08896783 -0.18874109 -1.1139176 1.5425735 -0.35627472 0.40301377 -0.17103149 0.13412403 -0.072363354 -0.37852168 -0.20935042 -1.3109355 -0.6160383 -0.2553306 1.47426 0.7270863 -0.40527916 0.14890128 -0.34741035 -0.6346071 1.1280413 0.16554722 -0.87892544 0.75421745 1.4814286
846 1.0924801 0.23481965 -1.0416075 -0.6489283 0.8297211 -0.30059868 0.18960783 0.17966418 -0.4143363 0.6011102 0.7954398 -0.15857291 -0.058046903 0.25190935 0.16272369 0.9932799 0.59078616 -0.5316226 0.6522428 -0.10898302 0.16968524 -0.19664136 -0.10872132 0.0027534014 -0.09384359 1.4584274 -0.39761755 -0.20058616 -0.8199578 0.49023727 -0.28527215 0.05889233 0.67167664 0.8511085 0.28820246 -0.6420592 0.25805345 0.22766659 0.2645832 -0.19287388 -0.48635426 1.4353964 1.2655114 0.10271557 -0.2636427 -0.3276933 -1.4170566 -0.39023116 -0.08036542 -0.6247332 -0.2545798 -0.2796752 -0.96081513 1.5838224 -0.098371714 -0.03461394 0.32545444 0.35828543 -0.65536696 -0.08170973 -0.09695633 0.10289294 1.4578162 -0.2101077
3020 0.98517114 1.0468227 -0.20676997 0.17916669 0.44567674 -1.2488592 0.37600556 0.10853348 0.033540014 0.10982474 0.83492243 0.31772873 -0.916112 0.35605824 0.45985213 0.2686072 0.7358728 -0.27932444 1.5209347 1.8621072 0.22225153 -0.6204343 -1.2236228 -0.60749435 1.6753477 0.21552044 -0.27714816 -0.23759753 -0.025865197 0.8687417 -0.36178532 0.28671768 -0.38851842 0.44719908 -0.46236423 -1.0999061 -0.3444114 0.060388636 -0.3497164 0.008819058 -0.593208 0.63303685 0.7138919 -0.25447074 0.8420454 0.23786148 -0.818397 0.12880151 -0.7053481 0.2529677 -1.0238115 -0.9557372 -0.8111035 0.53662115 0.54045916 0.605864 0.0063642506 0.38017088 -0.6319693 -0.5377412 -0.3692709 -0.30321252 0.028554741 0.08499417
1731 0.9844966 0.6417039 1.3626543 0.42441687 -0.47694698 0.3479966 0.40703642 0.27863684 0.3312331 -0.19110243 -0.9693833 0.15426053 -0.00795661 0.6479488 0.27548894 0.10953718 -0.86499965 -1.7165836 0.45867428 -0.3126244 -1.071512 -0.48096073 0.99036044 0.1789805 -0.516739 1.0117537 -0.13716498 0.75192827 -0.49924788 -0.44744816 -0.21472023 0.20348124 0.37288004 0.73315746 0.46428815 0.35760573 -0.12557122 -0.92050385 -0.69107574 -0.688791 -0.09212361 0.8550318 -0.14032583 0.5440691 0.65842736 -0.035935268 -1.6664441 0.18700518 -1.8528665 0.046748046 -0.5355909 -0.3689664 -0.9892174 0.12594596 -0.098946154 0.39361477 0.18506354 -0.21273513 0.29701573 -0.04580611 1.0562966 -0.3368217 -0.56017727 0.23074147
323 0.8112293 0.5740003 -0.22642826 0.049109805 0.5623162 -0.83572364 0.5370086 0.92701286 -0.19076425 -0.21558075 0.9828956 1.1114682 0.21907441 0.61392 0.00879763 0.6508023 -0.3548467 -1.0932238 1.4128203 1.5251108 0.63556457 -0.1706297 -0.6675884 -0.028019438 -0.56894374 0.36553296 0.4460282 0.19468053 -1.078076 -0.017046573 0.059217393 0.46745294 -0.085913315 -0.07137157 0.9731572 -0.57495075 -0.20117533 0.15222847 -0.16392103 -0.7482719 0.4304263 1.0757165 0.37803477 -0.035240702 0.6683725 -0.3194025 -0.80288863 0.6461045 -1.041134 -0.029807553 -0.35526353 -1.6565592 -1.5838386 -0.6417805 0.9578989 0.4085466 -0.709632 -0.61678267 0.08973691 0.6628043 0.5548945 0.1004029 -0.019140134 -0.10203739
1390 1.5662585 1.082295 0.17604108 0.07369434 -0.7139268 0.022015136 -0.23207746 1.4209183 -0.66469383 -1.0349711 1.1669304 0.3581565 -0.59858155 0.2323289 -0.5914189 -1.5212977 0.2303264 -0.49964374 0.449606 0.68716574 -1.2542855 -0.8777395 -0.4307746 -0.53167146 -0.09799239 -0.15137236 0.3488177 -0.5852698 0.41921946 -0.37720066 -0.22279567 1.212881 0.86692834 -0.8646103 0.39045802 -0.3768327 1.2891216 -0.5402419 0.16687076 0.61347336 0.21935107 -0.08782105 -0.37071952 -0.56989807 0.62007034 0.4787183 -0.23680948 -0.04647034 -1.336397 1.0422553 0.33582005 0.37574023 -1.0487198 0.46822438 0.3634085 0.8069537 0.24094267 -0.13477476 0.5229581 0.13592176 -0.3127505 -0.14916332 0.56295824 -0.60570604
2878 0.57817996 0.66248375 -0.38007358 1.5945902 0.12249329 -0.3133 0.096375234 0.11919713 -1.4448178 -0.34795904 0.96616226 0.14873436 -0.8900243 0.29145434 -0.0054877806 -1.4194978 -0.9757491 -1.1560569 0.24739353 0.46784332 -0.039036456 -0.78054863 0.21143927 0.38557172 0.43825555 -0.46932602 -0.009701295 -0.17643051 -0.5007506 -0.14044459 0.95781 1.2851197 0.38508803 -0.5525669 1.0597333 -1.4396212 0.44190857 -1.1177713 -0.16107033 0.7351281 -0.991084 0.33066592 0.025786594 -1.6678116 -0.16967833 0.23610073 -0.35771576 -0.5824137 -0.582685 -0.63017905 0.17902914 -0.37385502 -1.6384058 -0.031641018 -0.14750342 0.61739904 -0.28972197 -0.9686862 -0.64028513 -0.1181677 0.17244633 -0.3415886 0.11708754 0.38531998
932 -0.40466666 0.51744354 -0.008743906 1.4629654 -0.34791785 0.50865704 0.1700335 0.7069974 0.1894748 -0.26038378 -0.6262417 0.66543067 -0.34565875 -0.1788399 -0.17952517 0.16018005 -1.1539656 -1.153001 1.672641 0.038744897 -0.2867532 0.39345363 -0.5812825 -0.33650598 0.38308552 -0.613492 -0.055194538 0.6024892 0.5696822 1.2033812 0.040703416 0.8820675 -0.015117386 0.9095168 0.5109517 -0.57979816 1.5495209 -0.8104123 0.5293814 -0.13095489 -0.076296434 0.7271014 0.29917607 -0.48365924 1.160624 0.7762744 -0.4979699 0.73940957 -1.4651012 -0.04662733 0.5263658 -0.9297234 -1.098051 0.5439743 0.55524224 -0.17824644 -0.7475384 0.02156056 0.47302538 -0.3620352 0.071442515 0.055724327 0.67269784 -1.1748384
1977 -0.3254706 0.22794834 1.4379522 0.19638601 0.44640827 -0.11069721 0.84600013 -0.30305523 -0.3641106 -0.62416226 0.31702074 0.26291108 1.0863515 0.98597515 -0.022349915 0.98468953 -0.62159896 -1.2664007 1.6720198 -0.105331816 0.14110665 0.40325314 0.02045626 -0.10971543 0.130701 1.178233 0.41591325 0.64907634 -0.6479052 0.25178948 -0.71816844 -0.48434544 0.7219785 -0.18859029 0.1921731 -0.86374635 -0.14524835 -0.016345631 -0.24594823 0.24649324 -0.11656274 0.72351015 0.7417777 -0.73173445 1.0039119 0.4203501 -0.5128581 1.1719007 -0.92013335 0.39218178 0.068320505 -0.9939255 -1.5343083 0.45956993 -0.09986185 -0.1812962 0.9786 0.12910344 -0.09009944 0.092588514 0.31986845 -0.87579954 0.20623209 0.84046406
863 0.20449336 0.45058206 0.4631764 1.4059653 -0.32483813 0.55436414 -0.23658489 -0.1552647 -1.3262851 -0.16572626 -0.321396 -0.2355027 -1.2478895 -0.32368797 1.0032946 -1.1178372 -0.31734857 -1.0520744 1.5100188 0.5044964 -1.3145 0.7790649 -0.27601302 0.06800562 1.1565499 0.267855 0.57008004 -0.6786773 -0.4063928 0.25377643 -0.1111789 0.11729929 -0.109896205 0.2019192 -0.8622285 -1.4029086 0.965766 -0.71759677 -0.73786974 -0.35100287 -1.1858333 -0.16227898 1.0281085 -0.84700155 0.7951814 -0.09374415 -0.5550701 0.42589572 -1.0641862 0.6583479 -0.025764285 -1.2420844 0.029961748 0.8142328 -0.4550756 0.29300746 0.52449274 -0.09295792 -0.0059470255 -0.52486503 -0.19607191 0.11342948 0.29576808 0.24935806
429 1.4655621 -0.21591131 -0.42225456 0.15854098 0.36994943 -1.1873423 0.071297966 0.6157096 -0.34109902 -0.56462514 0.6147667 1.3574573 -0.65044075 0.07419714 -0.045337275 0.87738293 -0.68981993 -0.17908256 0.2168553 0.9607939 0.6453395 -0.20610085 -0.37520885 -0.896796 0.12869726 0.3092674 -0.3052178 -0.24832568 -0.68585503 -0.32128465 -0.3290425 -1.2773253 -0.007241805 -1.0175937 0.37034762 -1.1186707 0.39690074 -0.9203109 -0.22616418 0.0055609513 -0.79451454 1.3750737 0.29355496 -0.062300384 -0.22287607 -1.0391266 -0.65734243 -0.28732073 -1.2908138 -0.5459999 -1.1080637 0.17638479 -0.49628302 -0.91043943 0.34243622 0.643404 0.7693059 -0.5965564 -0.7224918 -0.07955336 0.41966435 -0.43660536 0.2743802 1.03282
305 1.4140931 -0.41981798 -0.65753955 0.3934564 0.0046850145 -1.1322751 0.13489467 0.25906846 -0.39883557 -0.9526654 0.33529115 0.98088753 -0.38403884 0.15589544 -0.0944128 0.29937878 -0.54087937 -0.47583276 0.71544915 1.0116454 0.5950914 0.65675694 -0.41844538 -0.8416 -0.007422836 -0.007445301 0.107736714 -0.5350339 -1.4072732 -0.3490775 -0.3190266 -1.0669125 -0.8080461 -0.5822676 -0.3685744 -1.1516576 0.32811993 -0.9664497 -0.42530373 0.1036076 -1.2120992 1.3826884 0.8544843 0.018193137 0.1366667 -0.33724368 -0.7177946 -0.14935659 -1.5996797 -1.1246456 -0.9579867 -0.07627274 -0.17924696 -0.27519324 0.62404734 0.97431815 0.6370826 -0.6197543 -0.7387216 0.06261964 0.5096485 -0.18379144 0.54698616 1.0240705
1864 -0.13222077 0.67816615 1.2532262 -0.19596513 0.317919 -0.6266131 0.5652319 0.7882717 0.48858133 -1.2622116 0.28018275 0.66707796 -0.69686157 1.0739597 0.38199607 0.28932044 -0.2652614 -0.52060264 0.027955102 0.5248349 0.122657396 -0.16685683 -0.8400123 0.054262538 -0.4179379 0.70843345 -0.2649949 -0.49941555 -0.7576921 -0.6003379 -0.098483615 0.11192088 -0.44073004 -0.7959295 0.18958358 -1.3869214 -0.14791733 -0.6044377 0.30751908 -0.7118634 -0.64940995 1.0202463 0.73546183 -0.072917715 0.6617961 -0.46000943 -0.95393264 -0.11362882 -0.6725928 -0.0022821347 -1.6954801 -0.8386833 -1.0352066 0.046427846 0.690239 0.29170254 0.99418366 -1.0567405 0.43879515 0.15145086 0.43948707 0.20926344 0.09158627 0.1970379
2139 0.07467825 0.7070997 -0.13815574 -0.023332806 0.6095281 -0.082994506 0.78107715 1.0594773 -1.3232559 -0.09207077 -0.27457923 0.7064024 -0.19756658 0.25438416 -0.109721325 0.18343726 0.61853606 -0.96898246 0.55177075 -0.26153222 -0.08446718 -0.4326482 1.5242153 -0.13300592 0.030038297 -0.37604704 0.9339414 0.39316875 -0.5703749 -0.69837636 -0.4032548 0.9126506 0.4728849 0.32096034 -0.59358597 -0.5232924 0.8456918 -1.4488157 -0.649979 0.28532523 -1.012901 0.66809946 0.23839138 -0.3799872 -0.91342694 0.2659463 -0.33173496 -0.09863548 -0.8450715 -0.31531963 -1.3386978 -0.50660926 0.059088677 1.059497 0.19006571 1.2762494 1.7124472 -0.07277448 0.9183271 -0.15797164 0.68781674 0.5213475 0.9395633 -0.3816282
450 0.48847318 0.3475846 0.557537 -0.033728592 0.7135052 0.7683796 -1.0448297 0.64317226 0.47890672 0.19070344 -0.24122398 0.16729358 0.7230989 0.1861317 -0.08848646 0.05259931 -0.7218076 -1.30999 0.22140542 0.3055087 0.22271913 -0.19524312 -0.048926782 0.5919304 -0.06798859 0.6636769 -0.4170339 -0.22159167 0.31071022 0.6815493 -0.07759145 0.17632024 0.75794435 -0.30611464 0.064999394 -0.95113856 0.6225566 -0.77410954 0.52711594 0.3453888 -0.42083904 1.0122334 0.08065154 -1.1805582 -0.011921067 0.23859908 -0.04939727 0.9672832 -0.3492046 -0.3030731 -0.93600476 -0.18691619 -0.505075 0.5870578 0.3871562 0.701227 -0.21492152 -1.0505103 0.0049865004 0.07213879 0.46825302 -0.7400326 1.543631 -0.32968697
704 0.25018778 1.031926 0.36852074 0.6670161 -0.16450301 -0.5652065 -0.54182667 -0.029009255 -0.20399061 -0.5442255 -0.6692234 0.06702767 0.5630829 1.7432266 0.557442 -0.25167498 0.38652763 -1.6723276 -0.46913955 0.9604185 -0.1909102 -0.5400809 0.7294814 -0.2833898 0.37887686 0.5148939 -0.41850153 0.88215345 -0.29539475 0.28937054 0.27233806 -0.06586969 0.8990115 -0.80225146 0.501469 -0.9651224 0.96345055 -0.36689466 0.8607597 0.15934421 -0.74450004 0.35261866 -0.14550304 -0.18096174 -1.2271626 -0.054632355 -0.45586947 1.0237643 -1.073734 -0.085213 0.2398389 0.08601946 -0.6798402 0.4993258 0.13348961 -0.3591945 1.1260006 0.51694864 0.063800566 -0.1820867 -0.19539796 -0.14846326 1.2327942 0.04616545
338 0.53858274 0.79534817 0.8083785 0.4239715 -0.6566905 0.11178179 0.580588 1.1997862 -0.26685315 -0.4474916 -0.8295584 -0.13853413 0.658296 0.32301256 -0.2680376 -0.015040819 0.09253438 -0.44750643 0.044729568 0.7597214 0.3669875 -0.4129383 -0.19288856 -0.52486235 -0.33062577 0.42407292 0.5881676 -0.28079718 -0.4205921 0.4955729 -0.13781476 0.12688851 0.14633642 -0.051361304 0.52626127 -0.41094562 -0.6045317 0.10157437 0.6885038 -0.23324504 0.06609076 -0.30805853 1.3090385 -0.14701582 0.4834766 0.48265854 -0.6720712 -0.39471218 -1.6662722 -0.6665137 -0.008153755 -1.2935054 -1.0035208 0.945444 0.9520225 0.19305554 -0.55202144 -0.90175134 0.57998115 -0.26865143 -0.42996097 0.1536532 0.9574878 -0.587223
616 -0.20900504 -0.014315291 0.16527602 -0.8143192 -0.18210775 -0.8333327 0.5760224 0.74432653 0.07980879 -0.08726894 -0.027054474 0.5980411 0.11908876 0.54186815 0.9239614 -0.61322856 -0.43667117 0.16231714 -0.19313867 0.62926334 -0.47087127 0.725114 -0.57002723 0.8450717 0.74457157 0.69750214 0.55028975 0.3560353 0.22545284 2.0997715 -0.45520633 0.39418557 0.17907698 -0.15315036 1.1972688 -0.38137713 -0.06232248 -0.0025379136 0.3138639 -0.95619607 0.071287975 0.67033577 0.1143286 1.1107384 0.28091797 -0.012737197 -0.98289996 -0.07570882 -1.1396627 -0.16317774 -1.2968053 -0.9378939 -1.4875705 0.13167642 -0.1862233 -0.8175726 -0.9635599 -0.009051286 0.053451106 -0.5571508 0.05549415 -0.5542564 1.0937104 -0.12181649
495 -0.7362505 0.90586394 -0.5498837 -0.5779335 0.5015184 -0.62038696 0.2761573 0.53607535 -0.8102196 -0.7883918 -0.49635473 0.02586212 -0.17991082 0.37571368 0.7107118 -0.18486771 -0.02147222 0.45698434 -0.16475028 -0.002590077 0.012496946 0.055928733 -0.24138647 -0.09553908 0.01766527 0.78451097 0.010715399 -0.17633326 -1.1649929 0.40579218 -0.18219706 0.95179456 0.9918817 -0.49462602 -0.1075499 -1.8390875 0.8948147 0.38852808 -0.4393523 0.1813179 -0.3786232 0.6455494 0.86881363 -0.25711712 -0.30993235 0.51742136 -0.81034374 0.23221645 -0.4365429 0.756855 -1.2342829 -0.720766 -0.333414 1.1496673 0.35865054 0.4267796 1.0455714 0.16143675 0.23842208 0.66840315 0.23441021 -0.21235277 0.9515674 0.38967976
641 0.73430574 0.0007926037 -0.6423754 0.6580558 -0.3428094 -0.04349142 0.33521625 1.4682312 1.0628123 -0.026664395 0.33423686 0.10144511 -0.8675235 0.17276008 -0.005748263 0.08687707 -0.4561182 -1.8144116 0.8617791 0.6874411 -0.4917758 -0.45112258 -0.22528389 -0.14273947 0.20333737 0.81259376 0.0066360384 -0.28430912 0.75584793 0.9622357 -0.4058695 0.53842163 -0.3352392 0.37734136 -0.0013850663 -0.48159233 -0.6939918 -0.8168955 -0.5172365 -0.03200474 0.31141856 0.100262225 0.3652191 -0.17659555 0.35766706 -0.2809755 -0.54119956 -0.47614 -0.67441016 -0.6420725 -1.2055929 -0.86319816 -0.059520185 0.5895239 2.002236 0.19414026 1.2817018 -0.9117442 -0.2562097 0.3228187 -0.06818272 -0.7288296 0.6042576 -0.907787
598 1.0458072 0.9664821 1.2150118 0.47482672 1.3778896 0.26498294 0.8710031 0.7602556 -0.39119658 0.18706152 -0.53424203 0.9398775 0.45521185 1.1705778 0.6776602 -0.30095792 -0.50848216 -0.62930226 0.9006915 0.117105134 -0.7124189 -1.0530572 1.4389995 0.8451164 0.064265475 -1.0578938 0.6844808 1.5500388 0.0643878 0.24145934 -0.45154014 0.88939786 -0.59214556 0.22649261 1.0630555 1.1052076 0.7356076 -0.41473773 0.22796643 -0.8415503 0.2890029 1.2839987 -0.16033597 -0.7182358 -0.3950907 0.016947694 0.41006473 -0.5032759 -0.51347035 -0.38300806 0.32353544 -1.4647628 -1.4408435 -0.17658694 0.8855359 0.12233984 -0.24998046 0.978712 -1.1383069 -0.04779234 0.044841826 0.27456403 0.77449137 0.46526405
416 1.0742612 -0.56069744 0.5668787 1.0905006 -0.14158951 0.98722786 0.041561086 1.8933878 -0.5884306 -0.08947168 -0.25036916 1.3136601 -0.48445532 -0.675657 0.68823135 -0.5931017 0.0041997675 0.5889276 0.9332998 1.3389884 -0.7172276 -0.35281104 -1.239493 -0.13966766 0.059784196 -0.32752913 -0.22508721 0.7414301 0.8909327 -0.5955615 -0.19126087 -0.63702303 0.24667662 -1.339831 -0.021491544 1.2884808 0.08495506 -0.52426404 -0.017506221 -0.70796674 0.23067188 1.696095 -0.20380878 0.2958701 -1.4598447 0.016632006 0.9233782 -0.15583356 -0.113654606 0.33020914 -0.046193432 -0.4828838 -0.30119202 0.18165879 0.7408934 0.4444132 1.4905925 -0.5992224 -0.6369873 -0.3000141 0.49330613 -0.8943928 0.97839284 0.6762371
2809 1.1232133 0.47711152 0.5127409 0.574242 0.10453634 0.95930296 0.09304747 1.8436892 -0.14018099 -0.81102747 -0.191374 0.21513523 0.6729415 0.40894133 -0.2178572 0.65318453 -0.10094776 0.14305551 0.38952115 0.6497555 -0.5024685 -0.9381521 0.33017683 0.07563549 -0.45276213 -0.042667005 -0.35439187 0.5105356 0.39293563 0.48318437 0.03432331 -0.40971044 0.25014207 -1.246391 -0.16883506 1.1226138 0.34927297 -0.6409187 -0.5609472 -1.0977225 1.2332025 1.0564959 0.06761464 0.45832342 -0.6783814 1.0314374 0.03787223 -0.45242333 -0.20785414 0.1628189 0.49209413 -1.3044817 -0.64846337 -0.36629575 0.86345255 -0.38836417 0.73856914 0.17624177 -1.0696464 0.43611148 -0.011199317 -0.71846455 1.6629467 0.90823746
3084 1.9041059 0.03266412 0.09682334 -0.039736103 -0.55763364 0.27909526 -0.5441785 1.5373698 -0.404378 0.5794545 1.0899538 0.22267205 -1.9108928 -0.30272058 1.1519916 -0.66328937 0.34488225 0.2044098 0.69954777 1.7035823 -1.7980754 -0.16393188 -1.1460538 -0.5245118 0.3178942 0.5535221 -0.07713052 0.45641673 0.88939476 1.0012618 -0.3448408 -0.013210773 -0.066524886 -0.38720283 -0.0876942 0.7141085 -0.46481776 -0.21276237 -0.6357585 -0.40508878 0.89022446 -0.5292717 -0.24646477 1.2703251 0.1389774 0.28973067 0.2506283 -0.9266455 -1.5448993 0.33005044 -0.76747394 0.049145658 -0.6187329 0.38944826 -0.75376683 -0.9341106 0.49230102 -0.3045978 -0.28530848 -0.28783694 0.16620903 -0.1386533 0.94940966 0.26783413
